{"learner":{"attributes":{"best_iteration":"181","best_score":"0.3576372998990513","scikit_learn":"{\"_estimator_type\": \"classifier\"}"},"feature_names":[],"feature_types":[],"gradient_booster":{"model":{"cats":{"enc":[],"feature_segments":[],"sorted_idx":[]},"gbtree_model_param":{"num_parallel_tree":"1","num_trees":"202"},"iteration_indptr":[0,1,2,3,4,5,6,7,8,9,10,11,12,13,14,15,16,17,18,19,20,21,22,23,24,25,26,27,28,29,30,31,32,33,34,35,36,37,38,39,40,41,42,43,44,45,46,47,48,49,50,51,52,53,54,55,56,57,58,59,60,61,62,63,64,65,66,67,68,69,70,71,72,73,74,75,76,77,78,79,80,81,82,83,84,85,86,87,88,89,90,91,92,93,94,95,96,97,98,99,100,101,102,103,104,105,106,107,108,109,110,111,112,113,114,115,116,117,118,119,120,121,122,123,124,125,126,127,128,129,130,131,132,133,134,135,136,137,138,139,140,141,142,143,144,145,146,147,148,149,150,151,152,153,154,155,156,157,158,159,160,161,162,163,164,165,166,167,168,169,170,171,172,173,174,175,176,177,178,179,180,181,182,183,184,185,186,187,188,189,190,191,192,193,194,195,196,197,198,199,200,201,202],"tree_info":[0,0,0,0,0,0,0,0,0,0,0,0,0,0,0,0,0,0,0,0,0,0,0,0,0,0,0,0,0,0,0,0,0,0,0,0,0,0,0,0,0,0,0,0,0,0,0,0,0,0,0,0,0,0,0,0,0,0,0,0,0,0,0,0,0,0,0,0,0,0,0,0,0,0,0,0,0,0,0,0,0,0,0,0,0,0,0,0,0,0,0,0,0,0,0,0,0,0,0,0,0,0,0,0,0,0,0,0,0,0,0,0,0,0,0,0,0,0,0,0,0,0,0,0,0,0,0,0,0,0,0,0,0,0,0,0,0,0,0,0,0,0,0,0,0,0,0,0,0,0,0,0,0,0,0,0,0,0,0,0,0,0,0,0,0,0,0,0,0,0,0,0,0,0,0,0,0,0,0,0,0,0,0,0,0,0,0,0,0,0,0,0,0,0,0,0,0,0,0,0,0,0],"trees":[{"base_weights":[-2.80486E-3,-1.3623369E0,1.3552182E0,-1.6594126E0,-7.365808E-1,6.98253E-1,1.6733792E0,-1.8104708E0,-1.4375597E0,-9.8326296E-1,-3.78795E-1,3.0475417E-1,8.978184E-1,1.4635689E0,1.8681848E0,-9.6056156E-2,-8.61944E-2,-8.527725E-2,-5.6997444E-2,-6.0693342E-2,-2.8007237E-2,-3.0157551E-2,-4.507772E-3,-3.1538017E-3,1.9959992E-2,5.7442036E-2,3.5712488E-2,8.121439E-2,6.567016E-2,9.683747E-2,9.068772E-2],"categories":[],"categories_nodes":[],"categories_segments":[],"categories_sizes":[],"default_left":[0,0,0,0,0,0,0,0,0,0,0,0,0,0,0,0,0,0,0,0,0,0,0,0,0,0,0,0,0,0,0],"id":0,"left_children":[1,3,5,7,9,11,13,15,17,19,21,23,25,27,29,-1,-1,-1,-1,-1,-1,-1,-1,-1,-1,-1,-1,-1,-1,-1,-1],"loss_changes":[2.9453875E4,1.4807744E3,1.6670244E3,1.7853223E2,2.2629248E2,2.0435107E2,2.1700488E2,2.7458008E1,1.7306201E2,1.4757947E2,6.792154E1,3.0538643E1,7.8823364E1,6.0448242E1,6.8779297E0,0E0,0E0,0E0,0E0,0E0,0E0,0E0,0E0,0E0,0E0,0E0,0E0,0E0,0E0,0E0,0E0],"parents":[2147483647,0,0,1,1,2,2,3,3,4,4,5,5,6,6,7,7,8,8,9,9,10,10,11,11,12,12,13,13,14,14],"right_children":[2,4,6,8,10,12,14,16,18,20,22,24,26,28,30,-1,-1,-1,-1,-1,-1,-1,-1,-1,-1,-1,-1,-1,-1,-1,-1],"split_conditions":[-9.850761E-6,-6.781651E-4,6.3579157E-4,-1.4494003E-3,-2.7542087E-4,2.0200592E-4,1.670602E-3,-2.8164869E-3,4E1,2.36E2,3.4E1,-7.0710677E-1,1.29E2,1.96E2,3.52E2,-9.6056156E-2,-8.61944E-2,-8.527725E-2,-5.6997444E-2,-6.0693342E-2,-2.8007237E-2,-3.0157551E-2,-4.507772E-3,-3.1538017E-3,1.9959992E-2,5.7442036E-2,3.5712488E-2,8.121439E-2,6.567016E-2,9.683747E-2,9.068772E-2],"split_indices":[27,27,27,27,27,27,27,27,12,11,12,19,11,11,11,0,0,0,0,0,0,0,0,0,0,0,0,0,0,0,0],"split_type":[0,0,0,0,0,0,0,0,0,0,0,0,0,0,0,0,0,0,0,0,0,0,0,0,0,0,0,0,0,0,0],"sum_hessian":[1.5951128E4,7.9711343E3,7.979994E3,5.403966E3,2.5671682E3,2.604729E3,5.375265E3,3.2106765E3,2.193289E3,1.5184772E3,1.0486912E3,8.773387E2,1.7273903E3,2.5920637E3,2.7832014E3,1.4001292E3,1.8105475E3,1.151597E3,1.0416921E3,9.8161694E2,5.368602E2,5.894383E2,4.5925284E2,1.7931328E2,6.980254E2,7.274183E2,9.99972E2,1.2472957E3,1.3447682E3,1.2163787E3,1.5668229E3],"tree_param":{"num_deleted":"0","num_feature":"29","num_nodes":"31","size_leaf_vector":"1"}},{"base_weights":[-4.9779797E-3,-1.3003217E0,1.2863601E0,-1.5690526E0,-6.3787585E-1,6.918934E-1,1.6182084E0,-1.3154362E0,-1.7883308E0,-4.8571587E-1,-1.3052609E0,5.0844866E-1,1.4287919E0,1.3298712E0,1.7589068E0,-7.998603E-2,-5.4787677E-2,-9.28272E-2,-7.916523E-2,-3.251259E-2,-8.097114E-3,-9.478331E-3,-7.3864095E-2,6.037013E-3,3.4353934E-2,1.44708E-2,7.8671865E-2,5.4000784E-2,8.0546774E-2,8.079851E-2,9.2431836E-2],"categories":[],"categories_nodes":[],"categories_segments":[],"categories_sizes":[],"default_left":[0,0,0,0,0,0,0,0,0,0,0,0,0,0,0,0,0,0,0,0,0,0,0,0,0,0,0,0,0,0,0],"id":1,"left_children":[1,3,5,7,9,11,13,15,17,19,21,23,25,27,29,-1,-1,-1,-1,-1,-1,-1,-1,-1,-1,-1,-1,-1,-1,-1,-1],"loss_changes":[2.6693875E4,1.4172461E3,1.5753877E3,3.127998E2,2.330152E2,3.8652002E2,2.0569043E2,1.6259082E2,3.9527344E1,9.9793915E1,8.159259E1,1.5887622E2,9.3556274E1,1.1664136E2,4.117285E1,0E0,0E0,0E0,0E0,0E0,0E0,0E0,0E0,0E0,0E0,0E0,0E0,0E0,0E0,0E0,0E0],"parents":[2147483647,0,0,1,1,2,2,3,3,4,4,5,5,6,6,7,7,8,8,9,9,10,10,11,11,12,12,13,13,14,14],"right_children":[2,4,6,8,10,12,14,16,18,20,22,24,26,28,30,-1,-1,-1,-1,-1,-1,-1,-1,-1,-1,-1,-1,-1,-1,-1,-1],"split_conditions":[-9.850761E-6,-6.1150035E-4,7.093084E-4,6E0,8E0,8E0,5E0,-1.6650052E-3,-1.1244005E-3,4.4E1,-3.896246E-4,2.0200592E-4,9.66931E-5,1.670602E-3,1.566669E-3,-7.998603E-2,-5.4787677E-2,-9.28272E-2,-7.916523E-2,-3.251259E-2,-8.097114E-3,-9.478331E-3,-7.3864095E-2,6.037013E-3,3.4353934E-2,1.44708E-2,7.8671865E-2,5.4000784E-2,8.0546774E-2,8.079851E-2,9.2431836E-2],"split_indices":[27,27,27,20,20,20,20,27,27,12,1,27,27,27,27,0,0,0,0,0,0,0,0,0,0,0,0,0,0,0,0],"split_type":[0,0,0,0,0,0,0,0,0,0,0,0,0,0,0,0,0,0,0,0,0,0,0,0,0,0,0,0,0,0,0],"sum_hessian":[1.5956302E4,7.965793E3,7.990509E3,5.665948E3,2.2998445E3,2.8636697E3,5.126839E3,2.6305093E3,3.035439E3,1.8742532E3,4.2559122E2,2.2942302E3,5.694394E2,1.6847292E3,3.4421096E3,1.1439187E3,1.4865907E3,2.2716084E3,7.638306E2,1.2420549E3,6.321983E2,5.7133915E1,3.684573E2,7.241566E2,1.5700737E3,6.448558E1,5.049538E2,8.944443E2,7.902849E2,1.3348088E3,2.1073008E3],"tree_param":{"num_deleted":"0","num_feature":"29","num_nodes":"31","size_leaf_vector":"1"}},{"base_weights":[2.7675496E-3,-1.2085241E0,1.2581973E0,-1.4658726E0,-4.7048855E-1,6.6590816E-1,1.524799E0,-1.6565249E0,-1.2468847E0,-7.2527033E-1,-2.1751405E-1,3.4805462E-1,8.440046E-1,1.3326899E0,1.7010347E0,-8.784477E-2,-7.928729E-2,-7.30723E-2,-4.6423197E-2,-5.269986E-2,-2.4064714E-2,-2.2312831E-2,1.3649457E-3,5.174879E-2,1.5516511E-2,6.2240776E-2,3.6827605E-2,7.717807E-2,6.257153E-2,8.7700784E-2,8.1820175E-2],"categories":[],"categories_nodes":[],"categories_segments":[],"categories_sizes":[],"default_left":[0,0,0,0,0,0,0,0,0,0,0,0,0,0,0,0,0,0,0,0,0,0,0,0,0,0,0,0,0,0,0],"id":2,"left_children":[1,3,5,7,9,11,13,15,17,19,21,23,25,27,29,-1,-1,-1,-1,-1,-1,-1,-1,-1,-1,-1,-1,-1,-1,-1,-1],"loss_changes":[2.416752E4,1.5355615E3,1.2312842E3,2.482998E2,1.3472144E2,1.3693481E2,1.7991016E2,1.9967773E1,1.8960107E2,8.307721E1,5.889448E1,2.2281372E1,6.5965576E1,4.2262207E1,6.727051E0,0E0,0E0,0E0,0E0,0E0,0E0,0E0,0E0,0E0,0E0,0E0,0E0,0E0,0E0,0E0,0E0],"parents":[2147483647,0,0,1,1,2,2,3,3,4,4,5,5,6,6,7,7,8,8,9,9,10,10,11,11,12,12,13,13,14,14],"right_children":[2,4,6,8,10,12,14,16,18,20,22,24,26,28,30,-1,-1,-1,-1,-1,-1,-1,-1,-1,-1,-1,-1,-1,-1,-1,-1],"split_conditions":[3.570864E-5,-5.0971744E-4,6.3579157E-4,-1.4494003E-3,-2.3072693E-4,2.4745724E-4,1.670602E-3,-2.8915345E-3,4.4E1,2.8E1,3.1E1,7E0,1.6E1,2.5E1,8.1E1,-8.784477E-2,-7.928729E-2,-7.30723E-2,-4.6423197E-2,-5.269986E-2,-2.4064714E-2,-2.2312831E-2,1.3649457E-3,5.174879E-2,1.5516511E-2,6.2240776E-2,3.6827605E-2,7.717807E-2,6.257153E-2,8.7700784E-2,8.1820175E-2],"split_indices":[27,27,27,27,27,27,27,27,12,12,12,12,12,12,12,0,0,0,0,0,0,0,0,0,0,0,0,0,0,0,0],"split_type":[0,0,0,0,0,0,0,0,0,0,0,0,0,0,0,0,0,0,0,0,0,0,0,0,0,0,0,0,0,0,0],"sum_hessian":[1.5890452E4,8.0874126E3,7.8030396E3,5.995746E3,2.0916665E3,2.4231667E3,5.379873E3,3.2017327E3,2.7940137E3,1.0411807E3,1.0504858E3,8.7122394E2,1.5519427E3,2.5781125E3,2.8017603E3,1.3142289E3,1.8875038E3,1.66709E3,1.1269236E3,4.4213696E2,5.9904364E2,5.42642E2,5.0784387E2,4.3978966E1,8.2724493E2,3.2586008E2,1.2260826E3,7.12124E2,1.8659886E3,1.5252821E3,1.2764783E3],"tree_param":{"num_deleted":"0","num_feature":"29","num_nodes":"31","size_leaf_vector":"1"}},{"base_weights":[-5.1844557E-4,-2.4349344E-1,2.680929E-1,-4.2517418E-1,-6.866034E-2,1.8032314E-1,7.5304794E-1,-6.122112E-1,-2.3722564E-1,1.0958242E-3,-2.1227275E-1,1.7042551E-2,3.281999E-1,6.246664E-1,9.4395256E-1,-3.29426E-2,-1.1032524E-2,-4.974646E-3,-1.7840002E-2,-1.5762476E-2,2.3524903E-3,-9.144205E-3,-3.435859E-2,7.4968114E-3,-5.955307E-3,1.2710119E-2,3.0083666E-2,2.7736604E-2,4.579179E-2,2.962993E-2,5.245776E-2],"categories":[],"categories_nodes":[],"categories_segments":[],"categories_sizes":[],"default_left":[0,0,0,0,0,0,0,0,0,0,0,0,0,0,0,0,0,0,0,0,0,0,0,0,0,0,0,0,0,0,0],"id":3,"left_children":[1,3,5,7,9,11,13,15,17,19,21,23,25,27,29,-1,-1,-1,-1,-1,-1,-1,-1,-1,-1,-1,-1,-1,-1,-1,-1],"loss_changes":[1.0322208E3,2.637403E2,3.1958862E2,1.4300287E2,4.240565E1,1.5360075E2,2.7615479E1,3.7117188E1,3.3442238E1,4.144766E1,1.9188759E1,5.4740086E1,6.740158E1,1.3563568E1,1.6410217E1,0E0,0E0,0E0,0E0,0E0,0E0,0E0,0E0,0E0,0E0,0E0,0E0,0E0,0E0,0E0,0E0],"parents":[2147483647,0,0,1,1,2,2,3,3,4,4,5,5,6,6,7,7,8,8,9,9,10,10,11,11,12,12,13,13,14,14],"right_children":[2,4,6,8,10,12,14,16,18,20,22,24,26,28,30,-1,-1,-1,-1,-1,-1,-1,-1,-1,-1,-1,-1,-1,-1,-1,-1],"split_conditions":[2.2684893E-5,4.054381E-1,9.407073E-4,-3.909749E-4,2.9769394E-1,5.5697894E-1,3.541689E2,9E0,6.123234E-17,-8.660254E-1,5.317085E2,6.123234E-17,2.573487E2,7.7073103E-1,4.964377E-1,-3.29426E-2,-1.1032524E-2,-4.974646E-3,-1.7840002E-2,-1.5762476E-2,2.3524903E-3,-9.144205E-3,-3.435859E-2,7.4968114E-3,-5.955307E-3,1.2710119E-2,3.0083666E-2,2.7736604E-2,4.579179E-2,2.962993E-2,5.245776E-2],"split_indices":[28,10,28,28,26,10,7,20,19,18,7,19,7,10,10,0,0,0,0,0,0,0,0,0,0,0,0,0,0,0,0],"split_type":[0,0,0,0,0,0,0,0,0,0,0,0,0,0,0,0,0,0,0,0,0,0,0,0,0,0,0,0,0,0,0],"sum_hessian":[1.5813636E4,8.30309E3,7.5105464E3,4.071103E3,4.2319863E3,6.360721E3,1.1498254E3,2.0393678E3,2.0317352E3,2.8490994E3,1.382887E3,3.023447E3,3.337274E3,6.900472E2,4.597783E2,1.8216941E3,2.1767372E2,9.4502856E2,1.0867067E3,3.60636E2,2.4884634E3,1.3036E3,7.928691E1,1.5299619E3,1.4934851E3,2.6280854E3,7.091885E2,5.587496E2,1.312976E2,1.0747346E2,3.5230484E2],"tree_param":{"num_deleted":"0","num_feature":"29","num_nodes":"31","size_leaf_vector":"1"}},{"base_weights":[-8.9858647E-4,-2.067734E-1,2.565498E-1,-4.5917362E-1,-1.0424363E-1,9.654072E-2,4.3150854E-1,-6.0470617E-1,-2.4346599E-1,-5.932309E-1,-6.93811E-2,9.936283E-6,3.5858464E-1,2.880787E-1,6.2715507E-1,-3.291961E-2,-8.688203E-3,-1.611518E-2,1.3217794E-2,-1.5862357E-2,-5.9134353E-2,-3.3655632E-4,-1.021422E-2,-1.6148549E-2,3.1024213E-3,-4.5481767E-3,2.194929E-2,1.8817192E-2,4.5523127E-3,2.6683414E-2,3.9953347E-2],"categories":[],"categories_nodes":[],"categories_segments":[],"categories_sizes":[],"default_left":[0,0,0,0,0,0,0,0,0,0,0,0,0,0,0,0,0,0,0,0,0,0,0,0,0,0,0,0,0,0,0],"id":4,"left_children":[1,3,5,7,9,11,13,15,17,19,21,23,25,27,29,-1,-1,-1,-1,-1,-1,-1,-1,-1,-1,-1,-1,-1,-1,-1,-1],"loss_changes":[8.333156E2,2.2603198E2,1.9553448E2,7.906726E1,1.0588814E2,9.233391E1,9.345703E1,3.4730164E1,4.0851597E1,6.687715E1,4.9030518E1,5.349083E1,3.5557724E1,3.3482178E1,2.2244873E1,0E0,0E0,0E0,0E0,0E0,0E0,0E0,0E0,0E0,0E0,0E0,0E0,0E0,0E0,0E0,0E0],"parents":[2147483647,0,0,1,1,2,2,3,3,4,4,5,5,6,6,7,7,8,8,9,9,10,10,11,11,12,12,13,13,14,14],"right_children":[2,4,6,8,10,12,14,16,18,20,22,24,26,28,30,-1,-1,-1,-1,-1,-1,-1,-1,-1,-1,-1,-1,-1,-1,-1,-1],"split_conditions":[5.2697164E-1,-4.4088293E-4,2.4E2,3.4441695E-1,0E0,3.9703344E-4,6.741375E-1,9E0,1.07E2,5.080099E2,4.0351993E-1,-7.0710677E-1,-7.0710677E-1,8.045016E-2,1E0,-3.291961E-2,-8.688203E-3,-1.611518E-2,1.3217794E-2,-1.5862357E-2,-5.9134353E-2,-3.3655632E-4,-1.021422E-2,-1.6148549E-2,3.1024213E-3,-4.5481767E-3,2.194929E-2,1.8817192E-2,4.5523127E-3,2.6683414E-2,3.9953347E-2],"split_indices":[10,2,11,10,21,2,10,20,12,7,26,18,18,26,21,0,0,0,0,0,0,0,0,0,0,0,0,0,0,0,0],"split_type":[0,0,0,0,0,0,0,0,0,0,0,0,0,0,0,0,0,0,0,0,0,0,0,0,0,0,0,0,0,0,0],"sum_hessian":[1.5720303E4,8.735192E3,6.9851104E3,2.5223582E3,6.212834E3,3.649239E3,3.335871E3,1.5051008E3,1.0172574E3,4.12402E2,5.8004316E3,2.6675696E3,9.816695E2,1.9262188E3,1.4096523E3,1.3378995E3,1.6720122E2,8.808706E2,1.363868E2,2.8193707E2,1.3046494E2,3.9616606E3,1.8387714E3,4.2914993E2,2.2384197E3,1.489138E2,8.327557E2,1.3296583E3,5.965605E2,9.157603E2,4.9389206E2],"tree_param":{"num_deleted":"0","num_feature":"29","num_nodes":"31","size_leaf_vector":"1"}},{"base_weights":[4.9047396E-3,-2.1795061E-1,2.5182465E-1,-4.0404144E-1,-9.214938E-2,1.5082023E-1,6.078127E-1,-4.9928793E-1,-9.7568184E-2,-2.7355298E-1,-2.7424172E-2,3.879701E-2,3.477075E-1,4.733498E-1,9.057775E-1,-2.2402776E-2,-4.463641E-2,-1.2222052E-3,-3.0484293E-2,-1.9727776E-2,-5.329358E-3,2.5050552E-3,-7.878403E-3,5.18248E-3,-6.3999477E-3,1.1518643E-2,2.662231E-2,8.416035E-3,2.869137E-2,3.6144894E-2,5.92837E-2],"categories":[],"categories_nodes":[],"categories_segments":[],"categories_sizes":[],"default_left":[0,0,0,0,0,0,0,0,0,0,0,0,0,0,0,0,0,0,0,0,0,0,0,0,0,0,0,0,0,0,0],"id":5,"left_children":[1,3,5,7,9,11,13,15,17,19,21,23,25,27,29,-1,-1,-1,-1,-1,-1,-1,-1,-1,-1,-1,-1,-1,-1,-1,-1],"loss_changes":[8.6807306E2,1.9407532E2,2.689908E2,9.7568726E1,5.8095333E1,1.2859233E2,6.582672E1,5.102063E1,2.972381E1,2.624694E1,3.681748E1,4.0226067E1,4.5709335E1,3.4890976E1,2.5408081E1,0E0,0E0,0E0,0E0,0E0,0E0,0E0,0E0,0E0,0E0,0E0,0E0,0E0,0E0,0E0,0E0],"parents":[2147483647,0,0,1,1,2,2,3,3,4,4,5,5,6,6,7,7,8,8,9,9,10,10,11,11,12,12,13,13,14,14],"right_children":[2,4,6,8,10,12,14,16,18,20,22,24,26,28,30,-1,-1,-1,-1,-1,-1,-1,-1,-1,-1,-1,-1,-1,-1,-1,-1],"split_conditions":[2.2684893E-5,-4.0718785E-4,7.477012E-4,4.982393E-1,-3.3484973E-4,6.407987E-1,8.03E2,5.080099E2,1.085E3,4.054381E-1,2.0096274E-1,3.1436318E-1,4.7434098E-4,5.2697164E-1,-2.5881904E-1,-2.2402776E-2,-4.463641E-2,-1.2222052E-3,-3.0484293E-2,-1.9727776E-2,-5.329358E-3,2.5050552E-3,-7.878403E-3,5.18248E-3,-6.3999477E-3,1.1518643E-2,2.662231E-2,8.416035E-3,2.869137E-2,3.6144894E-2,5.92837E-2],"split_indices":[28,28,28,10,2,10,11,7,11,10,26,26,2,10,18,0,0,0,0,0,0,0,0,0,0,0,0,0,0,0,0],"split_type":[0,0,0,0,0,0,0,0,0,0,0,0,0,0,0,0,0,0,0,0,0,0,0,0,0,0,0,0,0,0,0],"sum_hessian":[1.5773284E4,8.290702E3,7.482582E3,3.3431511E3,4.9475513E3,5.8298916E3,1.6526903E3,2.5500205E3,7.931307E2,1.3002235E3,3.647328E3,3.7165044E3,2.1133872E3,1.1405718E3,5.121185E2,2.2581155E3,2.9190497E2,6.9494836E2,9.818231E1,7.530872E2,5.471362E2,2.286124E3,1.3612037E3,2.6763003E3,1.0402042E3,1.2938563E3,8.195308E2,2.832769E2,8.572949E2,3.1190662E2,2.0021188E2],"tree_param":{"num_deleted":"0","num_feature":"29","num_nodes":"31","size_leaf_vector":"1"}},{"base_weights":[-6.6032233E-3,-1.16681E0,1.1670903E0,-1.4715533E0,-6.7963225E-1,6.27676E-1,1.4665143E0,-1.1437292E0,-1.62794E0,-5.232396E-1,-1.3221303E0,4.513713E-1,1.330283E0,1.1782598E0,1.6077454E0,-6.751771E-2,-4.7280043E-2,-7.4084036E-2,-8.5808195E-2,-3.56851E-2,-1.0659951E-2,-2.3302358E-2,-7.356372E-2,1.09106945E-2,3.397232E-2,9.916206E-3,7.270108E-2,4.8164632E-2,7.311576E-2,7.588025E-2,8.666899E-2],"categories":[],"categories_nodes":[],"categories_segments":[],"categories_sizes":[],"default_left":[0,0,0,0,0,0,0,0,0,0,0,0,0,0,0,0,0,0,0,0,0,0,0,0,0,0,0,0,0,0,0],"id":6,"left_children":[1,3,5,7,9,11,13,15,17,19,21,23,25,27,29,-1,-1,-1,-1,-1,-1,-1,-1,-1,-1,-1,-1,-1,-1,-1,-1],"loss_changes":[2.1505146E4,1.1780869E3,1.2670674E3,2.4857324E2,3.0658435E2,3.4674463E2,2.035957E2,6.3448242E1,4.0101562E1,1.4517444E2,7.5665405E1,1.19132996E2,7.842395E1,1.0017432E2,3.57041E1,0E0,0E0,0E0,0E0,0E0,0E0,0E0,0E0,0E0,0E0,0E0,0E0,0E0,0E0,0E0,0E0],"parents":[2147483647,0,0,1,1,2,2,3,3,4,4,5,5,6,6,7,7,8,8,9,9,10,10,11,11,12,12,13,13,14,14],"right_children":[2,4,6,8,10,12,14,16,18,20,22,24,26,28,30,-1,-1,-1,-1,-1,-1,-1,-1,-1,-1,-1,-1,-1,-1,-1,-1],"split_conditions":[5.062881E-6,-8.1217557E-4,7.093084E-4,5E0,8E0,8E0,5E0,-1.6650052E-3,7E0,-2.7542087E-4,-2.8605753E-4,3.3535715E-4,9.66931E-5,1.7809846E-3,8E0,-6.751771E-2,-4.7280043E-2,-7.4084036E-2,-8.5808195E-2,-3.56851E-2,-1.0659951E-2,-2.3302358E-2,-7.356372E-2,1.09106945E-2,3.397232E-2,9.916206E-3,7.270108E-2,4.8164632E-2,7.311576E-2,7.588025E-2,8.666899E-2],"split_indices":[27,27,27,20,20,20,20,27,20,27,13,27,27,27,20,0,0,0,0,0,0,0,0,0,0,0,0,0,0,0,0],"split_type":[0,0,0,0,0,0,0,0,0,0,0,0,0,0,0,0,0,0,0,0,0,0,0,0,0,0,0,0,0,0,0],"sum_hessian":[1.5790553E4,7.940903E3,7.8496494E3,4.88388E3,3.0570232E3,2.8030437E3,5.0466055E3,1.580044E3,3.303836E3,2.4600327E3,5.9699066E2,2.242082E3,5.6096173E2,1.6625869E3,3.3840188E3,7.7059076E2,8.094532E2,1.2497557E3,2.05408E3,1.5230804E3,9.3695215E2,8.918652E1,5.078041E2,1.1096559E3,1.132426E3,5.5534607E1,5.0542712E2,9.488829E2,7.1370404E2,1.9779529E3,1.4060658E3],"tree_param":{"num_deleted":"0","num_feature":"29","num_nodes":"31","size_leaf_vector":"1"}},{"base_weights":[-3.2338977E-3,-1.1027745E0,1.1119019E0,-1.3526449E0,-5.1584154E-1,5.421963E-1,1.3886522E0,-1.0983218E0,-1.5706453E0,-3.7399858E-1,-1.1429478E0,3.674019E-1,1.2469155E0,1.0986241E0,1.5365965E0,-6.7078196E-2,-4.5573663E-2,-8.232933E-2,-7.111521E-2,-2.6686264E-2,-3.4378357E-3,-1.0932534E-2,-6.564911E-2,3.5835698E-3,2.5577387E-2,1.2174439E-2,6.88856E-2,4.40385E-2,7.035733E-2,6.7778796E-2,8.004451E-2],"categories":[],"categories_nodes":[],"categories_segments":[],"categories_sizes":[],"default_left":[0,0,0,0,0,0,0,0,0,0,0,0,0,0,0,0,0,0,0,0,0,0,0,0,0,0,0,0,0,0,0],"id":7,"left_children":[1,3,5,7,9,11,13,15,17,19,21,23,25,27,29,-1,-1,-1,-1,-1,-1,-1,-1,-1,-1,-1,-1,-1,-1,-1,-1],"loss_changes":[1.9208893E4,1.1561709E3,1.2255654E3,3.0499414E2,2.0923413E2,3.129945E2,2.229043E2,1.1497778E2,3.1188965E1,9.375638E1,6.7969055E1,8.693982E1,6.598328E1,1.1783594E2,3.81416E1,0E0,0E0,0E0,0E0,0E0,0E0,0E0,0E0,0E0,0E0,0E0,0E0,0E0,0E0,0E0,0E0],"parents":[2147483647,0,0,1,1,2,2,3,3,4,4,5,5,6,6,7,7,8,8,9,9,10,10,11,11,12,12,13,13,14,14],"right_children":[2,4,6,8,10,12,14,16,18,20,22,24,26,28,30,-1,-1,-1,-1,-1,-1,-1,-1,-1,-1,-1,-1,-1,-1,-1,-1],"split_conditions":[5.062881E-6,-6.1150035E-4,6.3579157E-4,6E0,8E0,8E0,5E0,-1.6650052E-3,-1.3104045E-3,4.4E1,-2.8013386E-4,2.0200592E-4,9.66931E-5,1.7435773E-3,1.1570901E-3,-6.7078196E-2,-4.5573663E-2,-8.232933E-2,-7.111521E-2,-2.6686264E-2,-3.4378357E-3,-1.0932534E-2,-6.564911E-2,3.5835698E-3,2.5577387E-2,1.2174439E-2,6.88856E-2,4.40385E-2,7.035733E-2,6.7778796E-2,8.004451E-2],"split_indices":[27,27,27,20,20,20,20,27,27,12,13,27,27,27,27,0,0,0,0,0,0,0,0,0,0,0,0,0,0,0,0],"split_type":[0,0,0,0,0,0,0,0,0,0,0,0,0,0,0,0,0,0,0,0,0,0,0,0,0,0,0,0,0,0,0],"sum_hessian":[1.5664187E4,7.8872505E3,7.776936E3,5.5311943E3,2.3560564E3,2.543651E3,5.233285E3,2.5557034E3,2.9754907E3,1.9227523E3,4.333042E2,2.0393451E3,5.0430582E2,1.7706168E3,3.4626685E3,1.1076149E3,1.4480886E3,1.9613186E3,1.0141721E3,1.2617542E3,6.6099817E2,6.76808E1,3.656234E2,6.6877655E2,1.3705686E3,5.8485588E1,4.4582022E2,1.0400623E3,7.3055457E2,9.133078E2,2.5493606E3],"tree_param":{"num_deleted":"0","num_feature":"29","num_nodes":"31","size_leaf_vector":"1"}},{"base_weights":[7.6282835E-3,-1.4552118E-1,2.8463387E-1,-3.5053053E-1,-4.785295E-2,1.951362E-1,6.2722236E-1,-2.992434E-1,-8.069551E-1,5.5195637E-2,-1.5430456E-1,9.663489E-2,3.122657E-1,4.542119E-1,7.957507E-1,-1.0155215E-2,-2.1203257E-2,-2.5310202E-2,-4.8917193E-2,9.0862915E-5,1.2117821E-2,-3.3340498E-3,-1.1321674E-2,1.2018802E-2,3.7059077E-4,1.1955311E-2,3.1997632E-2,2.7963346E-2,1.2613498E-2,3.6455598E-2,5.3700086E-2],"categories":[],"categories_nodes":[],"categories_segments":[],"categories_sizes":[],"default_left":[0,0,0,0,0,0,0,0,0,0,0,0,0,0,0,0,0,0,0,0,0,0,0,0,0,0,0,0,0,0,0],"id":8,"left_children":[1,3,5,7,9,11,13,15,17,19,21,23,25,27,29,-1,-1,-1,-1,-1,-1,-1,-1,-1,-1,-1,-1,-1,-1,-1,-1],"loss_changes":[6.5697144E2,1.9966316E2,1.6892816E2,7.508313E1,7.411728E1,5.0422836E1,3.2923462E1,3.4646667E1,1.6229187E1,3.4301327E1,2.0988693E1,3.0481176E1,4.7725693E1,1.185862E1,9.914856E0,0E0,0E0,0E0,0E0,0E0,0E0,0E0,0E0,0E0,0E0,0E0,0E0,0E0,0E0,0E0,0E0],"parents":[2147483647,0,0,1,1,2,2,3,3,4,4,5,5,6,6,7,7,8,8,9,9,10,10,11,11,12,12,13,13,14,14],"right_children":[2,4,6,8,10,12,14,16,18,20,22,24,26,28,30,-1,-1,-1,-1,-1,-1,-1,-1,-1,-1,-1,-1,-1,-1,-1,-1],"split_conditions":[1.664643E-4,-4.0718785E-4,9.407073E-4,4.151167E2,4.5814276E-2,6.1452544E-1,6.9512844E-1,4.6200424E-1,9.6614903E-1,2.0275956E-4,6.123234E-17,5E0,1.703412E2,7E0,7.0710677E-1,-1.0155215E-2,-2.1203257E-2,-2.5310202E-2,-4.8917193E-2,9.0862915E-5,1.2117821E-2,-3.3340498E-3,-1.1321674E-2,1.2018802E-2,3.7059077E-4,1.1955311E-2,3.1997632E-2,2.7963346E-2,1.2613498E-2,3.6455598E-2,5.3700086E-2],"split_indices":[28,28,28,6,26,9,8,26,8,2,19,20,6,20,19,0,0,0,0,0,0,0,0,0,0,0,0,0,0,0,0],"split_type":[0,0,0,0,0,0,0,0,0,0,0,0,0,0,0,0,0,0,0,0,0,0,0,0,0,0,0,0,0,0,0],"sum_hessian":[1.5484138E4,9.971577E3,5.5125605E3,3.2168005E3,6.7547764E3,4.3719927E3,1.140568E3,2.8933396E3,3.234608E2,3.4324937E3,3.3222827E3,2.375834E3,1.9961586E3,5.6462317E2,5.7594476E2,1.6359443E3,1.2573954E3,1.188528E2,2.04608E2,2.67157E3,7.609238E2,1.5008936E3,1.8213893E3,9.092729E2,1.466561E3,1.6332487E3,3.629099E2,3.7024393E2,1.9437926E2,4.675829E2,1.0836186E2],"tree_param":{"num_deleted":"0","num_feature":"29","num_nodes":"31","size_leaf_vector":"1"}},{"base_weights":[3.933822E-3,-1.7896055E-1,2.0719182E-1,-2.7846387E-1,-1.912318E-2,1.2744348E-1,5.07878E-1,-4.1367108E-1,-1.5851879E-1,-1.1622984E-1,9.566977E-2,-1.385805E-3,2.4665716E-1,3.27718E-1,6.961003E-1,-1.7724114E-2,-3.9234225E-2,-3.8562627E-3,-1.6365431E-2,-1.2615812E-2,-1.6311934E-3,9.919011E-3,-8.89645E-3,1.6164683E-2,-1.9833574E-3,4.9620066E-3,1.9399261E-2,1.0284962E-2,3.139894E-2,3.735524E-2,1.2250831E-2],"categories":[],"categories_nodes":[],"categories_segments":[],"categories_sizes":[],"default_left":[0,0,0,0,0,0,0,0,0,0,0,0,0,0,0,0,0,0,0,0,0,0,0,0,0,0,0,0,0,0,0],"id":9,"left_children":[1,3,5,7,9,11,13,15,17,19,21,23,25,27,29,-1,-1,-1,-1,-1,-1,-1,-1,-1,-1,-1,-1,-1,-1,-1,-1],"loss_changes":[5.751273E2,1.2951007E2,1.7564352E2,8.132785E1,3.4851738E1,8.896788E1,5.184738E1,5.151883E1,3.6534912E1,1.9261448E1,4.030103E1,3.462963E1,6.264525E1,2.8687653E1,1.7075928E1,0E0,0E0,0E0,0E0,0E0,0E0,0E0,0E0,0E0,0E0,0E0,0E0,0E0,0E0,0E0,0E0],"parents":[2147483647,0,0,1,1,2,2,3,3,4,4,5,5,6,6,7,7,8,8,9,9,10,10,11,11,12,12,13,13,14,14],"right_children":[2,4,6,8,10,12,14,16,18,20,22,24,26,28,30,-1,-1,-1,-1,-1,-1,-1,-1,-1,-1,-1,-1,-1,-1,-1,-1],"split_conditions":[2.2684893E-5,4.7324324E-1,7.684899E-4,-4.0718785E-4,1.499396E2,5.5697894E-1,1.651846E2,3.505181E2,5.933694E-6,-1.2826877E-6,7.1826255E-1,4.418877E-6,1.79E2,7.257838E-1,9E0,-1.7724114E-2,-3.9234225E-2,-3.8562627E-3,-1.6365431E-2,-1.2615812E-2,-1.6311934E-3,9.919011E-3,-8.89645E-3,1.6164683E-2,-1.9833574E-3,4.9620066E-3,1.9399261E-2,1.0284962E-2,3.139894E-2,3.735524E-2,1.2250831E-2],"split_indices":[28,10,28,28,7,10,6,6,5,14,8,5,11,10,20,0,0,0,0,0,0,0,0,0,0,0,0,0,0,0,0],"split_type":[0,0,0,0,0,0,0,0,0,0,0,0,0,0,0,0,0,0,0,0,0,0,0,0,0,0,0,0,0,0,0],"sum_hessian":[1.5468918E4,8.142396E3,7.3265215E3,5.0178804E3,3.1245156E3,5.7918296E3,1.5346921E3,2.3577146E3,2.6601658E3,1.6926455E3,1.4318701E3,2.7841272E3,3.0077021E3,7.8554047E2,7.491516E2,2.0350178E3,3.2269675E2,1.7957023E3,8.6446356E2,6.4338403E2,1.0492615E3,1.041253E3,3.906171E2,2.9285562E2,2.4912717E3,1.4729714E3,1.5347308E3,5.5975476E2,2.2578575E2,6.724597E2,7.669187E1],"tree_param":{"num_deleted":"0","num_feature":"29","num_nodes":"31","size_leaf_vector":"1"}},{"base_weights":[-3.431085E-3,-1.0290619E0,1.1066922E0,-1.2430843E0,-3.477116E-1,5.9749573E-1,1.3280699E0,-9.734011E-1,-1.4888115E0,-2.434978E-1,-8.437064E-1,4.2893824E-1,1.2734597E0,1.0264286E0,1.4814141E0,-6.382512E-2,-3.955983E-2,-7.756908E-2,-6.346086E-2,-1.8424211E-2,6.003681E-4,6.6732243E-3,-5.303515E-2,3.7349142E-2,1.6146367E-2,6.780641E-2,1.5756141E-2,4.0448327E-2,6.77472E-2,6.938358E-2,8.058493E-2],"categories":[],"categories_nodes":[],"categories_segments":[],"categories_sizes":[],"default_left":[0,0,0,0,0,0,0,0,0,0,0,0,0,0,0,0,0,0,0,0,0,0,0,0,0,0,0,0,0,0,0],"id":10,"left_children":[1,3,5,7,9,11,13,15,17,19,21,23,25,27,29,-1,-1,-1,-1,-1,-1,-1,-1,-1,-1,-1,-1,-1,-1,-1,-1],"loss_changes":[1.7556291E4,1.1683125E3,8.3390625E2,4.026953E2,9.8892075E1,2.5531433E2,2.3716211E2,1.5972437E2,4.1850098E1,5.0643158E1,7.063966E1,6.0411102E1,3.5040527E1,1.2337927E2,3.951709E1,0E0,0E0,0E0,0E0,0E0,0E0,0E0,0E0,0E0,0E0,0E0,0E0,0E0,0E0,0E0,0E0],"parents":[2147483647,0,0,1,1,2,2,3,3,4,4,5,5,6,6,7,7,8,8,9,9,10,10,11,11,12,12,13,13,14,14],"right_children":[2,4,6,8,10,12,14,16,18,20,22,24,26,28,30,-1,-1,-1,-1,-1,-1,-1,-1,-1,-1,-1,-1,-1,-1,-1,-1],"split_conditions":[6.581579E-5,-4.2857067E-4,6.3579157E-4,6E0,8E0,8E0,5E0,-1.6650052E-3,-8.8950887E-4,4.4E1,-3.1475615E-4,4.4827125E-6,3.8435028E-4,1.7809846E-3,8E0,-6.382512E-2,-3.955983E-2,-7.756908E-2,-6.346086E-2,-1.8424211E-2,6.003681E-4,6.6732243E-3,-5.303515E-2,3.7349142E-2,1.6146367E-2,6.780641E-2,1.5756141E-2,4.0448327E-2,6.77472E-2,6.938358E-2,8.058493E-2],"split_indices":[27,27,27,20,20,20,20,27,27,12,1,5,13,27,20,0,0,0,0,0,0,0,0,0,0,0,0,0,0,0,0],"split_type":[0,0,0,0,0,0,0,0,0,0,0,0,0,0,0,0,0,0,0,0,0,0,0,0,0,0,0,0,0,0,0],"sum_hessian":[1.5417508E4,8.0137573E3,7.4037505E3,6.0975884E3,1.9161687E3,2.244597E3,5.1591533E3,2.9094531E3,3.1881355E3,1.5846976E3,3.3147098E2,1.7979077E3,4.4668936E2,1.7413868E3,3.4177666E3,1.090078E3,1.819375E3,2.4764458E3,7.1168964E2,1.0638488E3,5.20849E2,6.0302776E1,2.7116818E2,4.479528E2,1.3499548E3,4.108347E2,3.5854687E1,1.0498784E3,6.915085E2,1.9944001E3,1.4233666E3],"tree_param":{"num_deleted":"0","num_feature":"29","num_nodes":"31","size_leaf_vector":"1"}},{"base_weights":[-3.117412E-4,-1.0050642E0,1.0459242E0,-1.2366626E0,-4.0008897E-1,6.23297E-1,1.3246696E0,-9.114509E-1,-1.4067682E0,-2.8393298E-1,-9.2314076E-1,4.652014E-1,1.2514343E0,1.0603619E0,1.4556878E0,-5.9388697E-2,-3.6984224E-2,-6.172624E-2,-7.572875E-2,-2.3713924E-2,-3.8109662E-3,1.681754E-2,-5.544103E-2,1.2835398E-2,3.278577E-2,3.9682828E-2,7.01719E-2,4.3511614E-2,6.4294815E-2,6.635182E-2,7.6808535E-2],"categories":[],"categories_nodes":[],"categories_segments":[],"categories_sizes":[],"default_left":[0,0,0,0,0,0,0,0,0,0,0,0,0,0,0,0,0,0,0,0,0,0,0,0,0,0,0,0,0,0,0],"id":11,"left_children":[1,3,5,7,9,11,13,15,17,19,21,23,25,27,29,-1,-1,-1,-1,-1,-1,-1,-1,-1,-1,-1,-1,-1,-1,-1,-1],"loss_changes":[1.60826875E4,1.092981E3,8.8211426E2,3.1090723E2,1.3109418E2,2.9540588E2,1.5481836E2,9.1242676E1,6.689795E1,6.99689E1,9.214969E1,9.447998E1,4.054895E1,6.3208252E1,2.9191895E1,0E0,0E0,0E0,0E0,0E0,0E0,0E0,0E0,0E0,0E0,0E0,0E0,0E0,0E0,0E0,0E0],"parents":[2147483647,0,0,1,1,2,2,3,3,4,4,5,5,6,6,7,7,8,8,9,9,10,10,11,11,12,12,13,13,14,14],"right_children":[2,4,6,8,10,12,14,16,18,20,22,24,26,28,30,-1,-1,-1,-1,-1,-1,-1,-1,-1,-1,-1,-1,-1,-1,-1,-1],"split_conditions":[3.570864E-5,-5.2613474E-4,8.222045E-4,5E0,8E0,8E0,5E0,-1.6650052E-3,7E0,-2.1522921E-4,-4.1623204E-4,3.831066E-4,2.4745724E-4,1.7809846E-3,7E0,-5.9388697E-2,-3.6984224E-2,-6.172624E-2,-7.572875E-2,-2.3713924E-2,-3.8109662E-3,1.681754E-2,-5.544103E-2,1.2835398E-2,3.278577E-2,3.9682828E-2,7.01719E-2,4.3511614E-2,6.4294815E-2,6.635182E-2,7.6808535E-2],"split_indices":[27,27,27,20,20,20,20,27,20,27,1,27,27,27,20,0,0,0,0,0,0,0,0,0,0,0,0,0,0,0,0],"split_type":[0,0,0,0,0,0,0,0,0,0,0,0,0,0,0,0,0,0,0,0,0,0,0,0,0,0,0,0,0,0,0],"sum_hessian":[1.5297241E4,7.8033423E3,7.4938994E3,5.6422974E3,2.1610447E3,2.9795747E3,4.5143247E3,1.939903E3,3.7023945E3,1.7696051E3,3.9143964E2,2.3818328E3,5.977418E2,1.4991426E3,3.015182E3,7.413568E2,1.198546E3,1.4300498E3,2.2723447E3,9.227387E2,8.4686646E2,5.0189037E1,3.412506E2,1.1383741E3,1.2434587E3,1.5055325E2,4.4718857E2,8.1605347E2,6.830892E2,1.1670869E3,1.848095E3],"tree_param":{"num_deleted":"0","num_feature":"29","num_nodes":"31","size_leaf_vector":"1"}},{"base_weights":[-7.965669E-3,-1.3169861E-1,2.1888776E-1,-3.113614E-1,-4.5378633E-2,1.5325265E-1,5.5759406E-1,-2.3279618E-1,-5.036395E-1,1.5642757E-2,-1.6635096E-1,1.908593E-1,-1.2374568E-1,5.0708085E-1,9.530186E-1,-7.251625E-3,-1.6601069E-2,-2.7769977E-2,1.4565922E-3,-1.1714274E-2,2.2395547E-3,-2.6264305E-3,-1.2384983E-2,1.2569586E-2,1.9048665E-3,7.4582584E-3,-1.7683089E-2,3.4670737E-2,2.1452138E-2,5.8696825E-2,3.2975867E-2],"categories":[],"categories_nodes":[],"categories_segments":[],"categories_sizes":[],"default_left":[0,0,0,0,0,0,0,0,0,0,0,0,0,0,0,0,0,0,0,0,0,0,0,0,0,0,0,0,0,0,0],"id":12,"left_children":[1,3,5,7,9,11,13,15,17,19,21,23,25,27,29,-1,-1,-1,-1,-1,-1,-1,-1,-1,-1,-1,-1,-1,-1,-1,-1],"loss_changes":[4.2480103E2,1.5185619E2,1.1865695E2,4.7889038E1,4.8840057E1,4.664628E1,1.6827362E1,1.9614609E1,2.5413055E1,3.205355E1,2.052723E1,3.643335E1,3.366029E1,1.0908157E1,5.517296E0,0E0,0E0,0E0,0E0,0E0,0E0,0E0,0E0,0E0,0E0,0E0,0E0,0E0,0E0,0E0,0E0],"parents":[2147483647,0,0,1,1,2,2,3,3,4,4,5,5,6,6,7,7,8,8,9,9,10,10,11,11,12,12,13,13,14,14],"right_children":[2,4,6,8,10,12,14,16,18,20,22,24,26,28,30,-1,-1,-1,-1,-1,-1,-1,-1,-1,-1,-1,-1,-1,-1,-1,-1],"split_conditions":[1.664643E-4,-4.0718785E-4,1.0765744E-3,5.537471E-1,3.1436318E-1,9E0,7.880311E-1,3.6749217E-1,9E0,-8.660254E-1,0E0,1.1731936E-1,1.344725E-4,1.9772725E-4,1.6353804E-3,-7.251625E-3,-1.6601069E-2,-2.7769977E-2,1.4565922E-3,-1.1714274E-2,2.2395547E-3,-2.6264305E-3,-1.2384983E-2,1.2569586E-2,1.9048665E-3,7.4582584E-3,-1.7683089E-2,3.4670737E-2,2.1452138E-2,5.8696825E-2,3.2975867E-2],"split_indices":[28,28,28,22,26,20,22,26,20,18,18,26,13,13,3,0,0,0,0,0,0,0,0,0,0,0,0,0,0,0,0],"split_type":[0,0,0,0,0,0,0,0,0,0,0,0,0,0,0,0,0,0,0,0,0,0,0,0,0,0,0,0,0,0,0],"sum_hessian":[1.5132013E4,9.791722E3,5.340291E3,3.1768828E3,6.614839E3,4.4746396E3,8.6565137E2,2.2569138E3,9.1996893E2,4.3975024E3,2.2173364E3,3.9400322E3,5.3460724E2,7.696193E2,9.6032036E1,1.1989321E3,1.0579817E3,8.384674E2,8.150157E1,4.5856497E2,3.9389373E3,9.248877E2,1.2924489E3,2.8213984E3,1.1186338E3,2.4460814E2,2.899991E2,2.2485077E2,5.4476855E2,5.3079445E1,4.295259E1],"tree_param":{"num_deleted":"0","num_feature":"29","num_nodes":"31","size_leaf_vector":"1"}},{"base_weights":[-2.5662356E-3,-9.8797333E-1,9.791748E-1,-1.2174628E0,-4.7722667E-1,4.7526547E-1,1.2379311E0,-1.3580763E0,-1.0348632E0,-6.8201077E-1,-2.2688347E-1,1.6424245E-1,6.367215E-1,1.07083E0,1.4147632E0,-7.290666E-2,-6.4090036E-2,-6.180186E-2,-3.4268424E-2,-4.5837555E-2,-1.9814268E-2,-2.305885E-2,-3.7194302E-3,-9.579469E-3,1.299643E-2,4.5867138E-2,2.495727E-2,6.236724E-2,4.6221316E-2,7.2911106E-2,6.416281E-2],"categories":[],"categories_nodes":[],"categories_segments":[],"categories_sizes":[],"default_left":[0,0,0,0,0,0,0,0,0,0,0,0,0,0,0,0,0,0,0,0,0,0,0,0,0,0,0,0,0,0,0],"id":13,"left_children":[1,3,5,7,9,11,13,15,17,19,21,23,25,27,29,-1,-1,-1,-1,-1,-1,-1,-1,-1,-1,-1,-1,-1,-1,-1,-1],"loss_changes":[1.4666352E4,8.8624414E2,9.8963135E2,1.3261719E2,1.2018201E2,1.2936426E2,1.4673486E2,2.0612305E1,1.5911035E2,8.6200806E1,3.7754303E1,3.0093113E1,6.505145E1,6.561426E1,1.2041504E1,0E0,0E0,0E0,0E0,0E0,0E0,0E0,0E0,0E0,0E0,0E0,0E0,0E0,0E0,0E0,0E0],"parents":[2147483647,0,0,1,1,2,2,3,3,4,4,5,5,6,6,7,7,8,8,9,9,10,10,11,11,12,12,13,13,14,14],"right_children":[2,4,6,8,10,12,14,16,18,20,22,24,26,28,30,-1,-1,-1,-1,-1,-1,-1,-1,-1,-1,-1,-1,-1,-1,-1,-1],"split_conditions":[-9.850761E-6,-6.282442E-4,6.3579157E-4,-1.4494003E-3,-2.7542087E-4,2.0200592E-4,1.7435773E-3,-2.8164869E-3,2.53E2,1.88E2,7.28788E1,-7.0710677E-1,4.7158765E-6,1.89E2,7.890812E-4,-7.290666E-2,-6.4090036E-2,-6.180186E-2,-3.4268424E-2,-4.5837555E-2,-1.9814268E-2,-2.305885E-2,-3.7194302E-3,-9.579469E-3,1.299643E-2,4.5867138E-2,2.495727E-2,6.236724E-2,4.6221316E-2,7.2911106E-2,6.416281E-2],"split_indices":[27,27,27,27,27,27,27,27,11,11,7,19,5,11,28,0,0,0,0,0,0,0,0,0,0,0,0,0,0,0,0],"split_type":[0,0,0,0,0,0,0,0,0,0,0,0,0,0,0,0,0,0,0,0,0,0,0,0,0,0,0,0,0,0,0],"sum_hessian":[1.5158358E4,7.5650513E3,7.593307E3,5.218764E3,2.346287E3,2.577211E3,5.016096E3,2.9447095E3,2.2740547E3,1.289629E3,1.0566581E3,8.813765E2,1.6958344E3,2.5826357E3,2.4334602E3,1.2659492E3,1.6787601E3,1.441672E3,8.3238257E2,7.0676843E2,5.8286066E2,4.1579907E2,6.40859E2,1.8656982E2,6.948067E2,5.560211E2,1.1398132E3,1.167497E3,1.4151388E3,1.821442E3,6.120183E2],"tree_param":{"num_deleted":"0","num_feature":"29","num_nodes":"31","size_leaf_vector":"1"}},{"base_weights":[7.948789E-3,-1.657833E-1,1.496125E-1,-2.473978E-1,-2.3561409E-2,9.075698E-2,4.505266E-1,-4.6161973E-1,-1.955105E-1,-2.7231163E-1,1.47940945E-2,-1.6135283E-1,1.2290342E-1,2.794774E-1,6.039785E-1,-8.518145E-3,-2.7419275E-2,8.589848E-3,-1.115407E-2,-2.8141355E-2,-8.3934795E-3,-6.045953E-3,4.403583E-3,-1.2227325E-2,7.97655E-3,-3.0147118E-4,1.0342312E-2,3.092578E-2,1.0597969E-2,2.666685E-2,4.300716E-2],"categories":[],"categories_nodes":[],"categories_segments":[],"categories_sizes":[],"default_left":[0,0,0,0,0,0,0,0,0,0,0,0,0,0,0,0,0,0,0,0,0,0,0,0,0,0,0,0,0,0,0],"id":14,"left_children":[1,3,5,7,9,11,13,15,17,19,21,23,25,27,29,-1,-1,-1,-1,-1,-1,-1,-1,-1,-1,-1,-1,-1,-1,-1,-1],"loss_changes":[3.6828537E2,7.801016E1,1.4594069E2,4.7377594E1,2.3396358E1,5.5903904E1,3.521817E1,2.0930695E1,3.4870346E1,9.845398E0,2.1145088E1,2.0867945E1,6.619734E1,1.4505505E1,1.2385437E1,0E0,0E0,0E0,0E0,0E0,0E0,0E0,0E0,0E0,0E0,0E0,0E0,0E0,0E0,0E0,0E0],"parents":[2147483647,0,0,1,1,2,2,3,3,4,4,5,5,6,6,7,7,8,8,9,9,10,10,11,11,12,12,13,13,14,14],"right_children":[2,4,6,8,10,12,14,16,18,20,22,24,26,28,30,-1,-1,-1,-1,-1,-1,-1,-1,-1,-1,-1,-1,-1,-1,-1,-1],"split_conditions":[-4.0639698E-5,4.7324324E-1,8.1042276E-4,0E0,-8.660254E-1,-8.660254E-1,1.579731E2,5.695299E-1,5.5E1,4.02715E1,5.2882833E-6,2.876568E2,4.964377E-1,4.7158765E-6,5E-1,-8.518145E-3,-2.7419275E-2,8.589848E-3,-1.115407E-2,-2.8141355E-2,-8.3934795E-3,-6.045953E-3,4.403583E-3,-1.2227325E-2,7.97655E-3,-3.0147118E-4,1.0342312E-2,3.092578E-2,1.0597969E-2,2.666685E-2,4.300716E-2],"split_indices":[28,10,28,21,18,18,6,8,11,6,5,7,10,5,19,0,0,0,0,0,0,0,0,0,0,0,0,0,0,0,0],"split_type":[0,0,0,0,0,0,0,0,0,0,0,0,0,0,0,0,0,0,0,0,0,0,0,0,0,0,0,0,0,0,0],"sum_hessian":[1.4961927E4,6.7202476E3,8.241679E3,4.269463E3,2.4507847E3,6.894493E3,1.3471859E3,8.3094135E2,3.4385217E3,3.265944E2,2.1241902E3,7.792413E2,6.115252E3,6.383989E2,7.0878705E2,1.9140233E2,6.39539E2,2.3971663E2,3.1988052E3,8.52036E1,2.4139081E2,7.445681E2,1.3796221E3,6.189958E2,1.602455E2,2.4117805E3,3.7034714E3,1.0466552E2,5.337334E2,5.5799347E2,1.5079358E2],"tree_param":{"num_deleted":"0","num_feature":"29","num_nodes":"31","size_leaf_vector":"1"}},{"base_weights":[-1.81457E-3,-9.481168E-1,9.39976E-1,-1.1972171E0,-5.146345E-1,4.9389833E-1,1.2088937E0,-8.7217784E-1,-1.3600273E0,-3.7736273E-1,-1.1057532E0,2.9209262E-1,9.622077E-1,9.872319E-1,1.3977741E0,-6.324759E-2,-3.886386E-2,-6.04752E-2,-7.2675124E-2,-2.9928831E-2,-1.0704086E-2,-8.764991E-3,-6.2481523E-2,1.235714E-3,2.0834915E-2,2.888212E-2,5.850789E-2,3.877808E-2,6.2303912E-2,6.544577E-2,7.409884E-2],"categories":[],"categories_nodes":[],"categories_segments":[],"categories_sizes":[],"default_left":[0,0,0,0,0,0,0,0,0,0,0,0,0,0,0,0,0,0,0,0,0,0,0,0,0,0,0,0,0,0,0],"id":15,"left_children":[1,3,5,7,9,11,13,15,17,19,21,23,25,27,29,-1,-1,-1,-1,-1,-1,-1,-1,-1,-1,-1,-1,-1,-1,-1,-1],"loss_changes":[1.3250024E4,8.0015674E2,8.932617E2,2.4800195E2,2.1932812E2,2.6474194E2,1.9322852E2,5.7696533E1,4.2359375E1,7.930881E1,6.803461E1,6.533026E1,6.682446E1,1.16389404E2,1.6819336E1,0E0,0E0,0E0,0E0,0E0,0E0,0E0,0E0,0E0,0E0,0E0,0E0,0E0,0E0,0E0,0E0],"parents":[2147483647,0,0,1,1,2,2,3,3,4,4,5,5,6,6,7,7,8,8,9,9,10,10,11,11,12,12,13,13,14,14],"right_children":[2,4,6,8,10,12,14,16,18,20,22,24,26,28,30,-1,-1,-1,-1,-1,-1,-1,-1,-1,-1,-1,-1,-1,-1,-1,-1],"split_conditions":[-9.850761E-6,-7.528405E-4,7.093084E-4,5E0,8E0,7E0,6E0,-2.8164869E-3,7E0,1.46E2,-3.896246E-4,2.0200592E-4,2.4745724E-4,1.7435773E-3,8E0,-6.324759E-2,-3.886386E-2,-6.04752E-2,-7.2675124E-2,-2.9928831E-2,-1.0704086E-2,-8.764991E-3,-6.2481523E-2,1.235714E-3,2.0834915E-2,2.888212E-2,5.850789E-2,3.877808E-2,6.2303912E-2,6.544577E-2,7.409884E-2],"split_indices":[27,27,27,20,20,20,20,27,20,11,1,27,27,27,20,0,0,0,0,0,0,0,0,0,0,0,0,0,0,0,0],"split_type":[0,0,0,0,0,0,0,0,0,0,0,0,0,0,0,0,0,0,0,0,0,0,0,0,0,0,0,0,0,0,0],"sum_hessian":[1.4865314E4,7.4148936E3,7.4504214E3,4.707798E3,2.7070957E3,2.8032532E3,4.6471685E3,1.5732563E3,3.1345415E3,2.1982488E3,5.088469E2,1.9601858E3,8.430673E2,2.1409143E3,2.506254E3,3.037538E2,1.2695026E3,1.2061748E3,1.9283667E3,9.323842E2,1.2658645E3,6.8443214E1,4.404037E2,6.234939E2,1.3366919E3,2.9721E2,5.4585736E2,1.1799843E3,9.6093E2,1.227462E3,1.278792E3],"tree_param":{"num_deleted":"0","num_feature":"29","num_nodes":"31","size_leaf_vector":"1"}},{"base_weights":[-3.9937384E-3,-8.913636E-1,9.2251927E-1,-1.1124506E0,-3.3924425E-1,5.343842E-1,1.21074E0,-8.624419E-1,-1.340042E0,-2.249205E-1,-8.6890227E-1,3.7365708E-1,1.1729636E0,8.429001E-1,1.3067743E0,-5.0874837E-2,-2.8654952E-2,-7.1431E-2,-5.966896E-2,-1.9112056E-2,-6.720588E-4,1.6718023E-2,-4.9872223E-2,1.0045228E-2,2.8322408E-2,3.6316875E-3,6.1715126E-2,2.62551E-2,4.7759693E-2,5.9284933E-2,7.0850424E-2],"categories":[],"categories_nodes":[],"categories_segments":[],"categories_sizes":[],"default_left":[0,0,0,0,0,0,0,0,0,0,0,0,0,0,0,0,0,0,0,0,0,0,0,0,0,0,0,0,0,0,0],"id":16,"left_children":[1,3,5,7,9,11,13,15,17,19,21,23,25,27,29,-1,-1,-1,-1,-1,-1,-1,-1,-1,-1,-1,-1,-1,-1,-1,-1],"loss_changes":[1.2048634E4,9.1335693E2,8.0137354E2,3.0295898E2,1.2949718E2,3.1331293E2,1.4420557E2,1.1380823E2,3.4618164E1,5.8648018E1,5.908969E1,8.1273254E1,4.136615E1,2.9989258E1,4.182959E1,0E0,0E0,0E0,0E0,0E0,0E0,0E0,0E0,0E0,0E0,0E0,0E0,0E0,0E0,0E0,0E0],"parents":[2147483647,0,0,1,1,2,2,3,3,4,4,5,5,6,6,7,7,8,8,9,9,10,10,11,11,12,12,13,13,14,14],"right_children":[2,4,6,8,10,12,14,16,18,20,22,24,26,28,30,-1,-1,-1,-1,-1,-1,-1,-1,-1,-1,-1,-1,-1,-1,-1,-1],"split_conditions":[3.570864E-5,-5.2613474E-4,8.600046E-4,6E0,8E0,8E0,4E0,-1.0535575E-3,-1.3104045E-3,3.6E1,-4.0950894E-4,4.259562E-4,9.66931E-5,1.2101127E-3,7E0,-5.0874837E-2,-2.8654952E-2,-7.1431E-2,-5.966896E-2,-1.9112056E-2,-6.720588E-4,1.6718023E-2,-4.9872223E-2,1.0045228E-2,2.8322408E-2,3.6316875E-3,6.1715126E-2,2.62551E-2,4.7759693E-2,5.9284933E-2,7.0850424E-2],"split_indices":[27,27,27,20,20,20,20,27,27,12,13,27,27,27,20,0,0,0,0,0,0,0,0,0,0,0,0,0,0,0,0],"split_type":[0,0,0,0,0,0,0,0,0,0,0,0,0,0,0,0,0,0,0,0,0,0,0,0,0,0,0,0,0,0,0],"sum_hessian":[1.4652857E4,7.484551E3,7.168307E3,5.343729E3,2.1408218E3,3.0559016E3,4.1124053E3,2.5487368E3,2.7949922E3,1.7619412E3,3.7888055E2,2.4426777E3,6.1322406E2,8.5340173E2,3.2590034E3,1.6578186E3,8.909183E2,1.7371104E3,1.0578818E3,1.009879E3,7.520621E2,3.6413994E1,3.4246655E2,1.2893677E3,1.1533099E3,3.249501E1,5.8072906E2,2.2429874E2,6.2910297E2,1.5587305E3,1.7002731E3],"tree_param":{"num_deleted":"0","num_feature":"29","num_nodes":"31","size_leaf_vector":"1"}},{"base_weights":[-2.5714866E-3,-8.685506E-1,8.7787735E-1,-1.1084391E0,-4.2121872E-1,4.8832935E-1,1.1821874E0,-7.84424E-1,-1.2738512E0,-3.0273026E-1,-9.416579E-1,2.843139E-1,9.476572E-1,9.2950106E-1,1.3064951E0,-6.066602E-2,-3.449703E-2,-5.581191E-2,-6.876025E-2,-2.253097E-2,-2.9240074E-3,-1.6923476E-3,-5.4372292E-2,5.5768485E-3,2.469982E-2,2.7317336E-2,5.8256637E-2,3.614295E-2,5.627888E-2,5.90131E-2,6.918927E-2],"categories":[],"categories_nodes":[],"categories_segments":[],"categories_sizes":[],"default_left":[0,0,0,0,0,0,0,0,0,0,0,0,0,0,0,0,0,0,0,0,0,0,0,0,0,0,0,0,0,0,0],"id":17,"left_children":[1,3,5,7,9,11,13,15,17,19,21,23,25,27,29,-1,-1,-1,-1,-1,-1,-1,-1,-1,-1,-1,-1,-1,-1,-1,-1],"loss_changes":[1.1058336E4,7.841738E2,8.519575E2,2.5406055E2,1.5720938E2,2.9546448E2,1.2558887E2,6.444574E1,4.8768066E1,7.517337E1,6.2585083E1,7.916426E1,8.403528E1,5.326013E1,2.4742188E1,0E0,0E0,0E0,0E0,0E0,0E0,0E0,0E0,0E0,0E0,0E0,0E0,0E0,0E0,0E0,0E0],"parents":[2147483647,0,0,1,1,2,2,3,3,4,4,5,5,6,6,7,7,8,8,9,9,10,10,11,11,12,12,13,13,14,14],"right_children":[2,4,6,8,10,12,14,16,18,20,22,24,26,28,30,-1,-1,-1,-1,-1,-1,-1,-1,-1,-1,-1,-1,-1,-1,-1,-1],"split_conditions":[5.062881E-6,-6.781651E-4,8.600046E-4,5E0,8E0,7E0,5E0,-2.8164869E-3,7E0,-2.3072693E-4,-3.896246E-4,4.259562E-4,2.9056158E-4,1.670602E-3,7E0,-6.066602E-2,-3.449703E-2,-5.581191E-2,-6.876025E-2,-2.253097E-2,-2.9240074E-3,-1.6923476E-3,-5.4372292E-2,5.5768485E-3,2.469982E-2,2.7317336E-2,5.8256637E-2,3.614295E-2,5.627888E-2,5.90131E-2,6.918927E-2],"split_indices":[27,27,27,20,20,20,20,27,20,27,1,27,27,27,20,0,0,0,0,0,0,0,0,0,0,0,0,0,0,0,0],"split_type":[0,0,0,0,0,0,0,0,0,0,0,0,0,0,0,0,0,0,0,0,0,0,0,0,0,0,0,0,0,0,0],"sum_hessian":[1.4501681E4,7.310923E3,7.190758E3,4.757932E3,2.5529905E3,3.154842E3,4.0359158E3,1.6099832E3,3.147949E3,2.0808296E3,4.72161E2,2.1856714E3,9.691708E2,1.3335728E3,2.7023428E3,2.8850537E2,1.3214778E3,1.2367401E3,1.911209E3,1.2955513E3,7.8527814E2,6.550406E1,4.0665695E2,1.1991293E3,9.865422E2,3.418544E2,6.2731635E2,6.5157465E2,6.8199817E2,1.0324248E3,1.6699181E3],"tree_param":{"num_deleted":"0","num_feature":"29","num_nodes":"31","size_leaf_vector":"1"}},{"base_weights":[-4.429688E-3,-8.3529735E-1,8.662862E-1,-1.0252212E0,-2.4167798E-1,4.9078628E-1,1.1332046E0,-1.2211118E0,-8.386572E-1,-4.333061E-1,-4.583841E-2,2.736205E-1,6.5675104E-1,9.579471E-1,1.2660604E0,-6.658398E-2,-5.7216156E-2,-5.1620305E-2,-2.4783144E-2,-2.9545134E-2,-8.566066E-3,-1.1352397E-2,5.4556523E-3,2.7974159E-2,6.107866E-3,4.5826897E-2,2.332805E-2,5.5897485E-2,4.092611E-2,6.766664E-2,5.952713E-2],"categories":[],"categories_nodes":[],"categories_segments":[],"categories_sizes":[],"default_left":[0,0,0,0,0,0,0,0,0,0,0,0,0,0,0,0,0,0,0,0,0,0,0,0,0,0,0,0,0,0,0],"id":18,"left_children":[1,3,5,7,9,11,13,15,17,19,21,23,25,27,29,-1,-1,-1,-1,-1,-1,-1,-1,-1,-1,-1,-1,-1,-1,-1,-1],"loss_changes":[1.0342454E4,8.245093E2,6.990967E2,2.0151074E2,6.657413E1,1.04418945E2,9.377344E1,2.14104E1,1.8833386E2,3.6924698E1,2.469816E1,5.44376E1,8.081421E1,3.841797E1,1.3661621E1,0E0,0E0,0E0,0E0,0E0,0E0,0E0,0E0,0E0,0E0,0E0,0E0,0E0,0E0,0E0,0E0],"parents":[2147483647,0,0,1,1,2,2,3,3,4,4,5,5,6,6,7,7,8,8,9,9,10,10,11,11,12,12,13,13,14,14],"right_children":[2,4,6,8,10,12,14,16,18,20,22,24,26,28,30,-1,-1,-1,-1,-1,-1,-1,-1,-1,-1,-1,-1,-1,-1,-1,-1],"split_conditions":[3.570864E-5,-4.2857067E-4,8.222045E-4,-1.4494003E-3,3.1E1,3.5101463E-4,1.670602E-3,-2.8915345E-3,2.53E2,7.0710677E-1,-2.1522921E-4,4.7158765E-6,1.37E2,2E2,3.73E2,-6.658398E-2,-5.7216156E-2,-5.1620305E-2,-2.4783144E-2,-2.9545134E-2,-8.566066E-3,-1.1352397E-2,5.4556523E-3,2.7974159E-2,6.107866E-3,4.5826897E-2,2.332805E-2,5.5897485E-2,4.092611E-2,6.766664E-2,5.952713E-2],"split_indices":[27,27,27,27,12,27,27,27,11,19,27,5,11,11,11,0,0,0,0,0,0,0,0,0,0,0,0,0,0,0,0],"split_type":[0,0,0,0,0,0,0,0,0,0,0,0,0,0,0,0,0,0,0,0,0,0,0,0,0,0,0,0,0,0,0],"sum_hessian":[1.4294023E4,7.314404E3,6.97962E3,5.5409067E3,1.7734972E3,2.9011418E3,4.078478E3,2.7001885E3,2.8407183E3,8.957739E2,8.777232E2,1.2578658E3,1.643276E3,1.7621438E3,2.3163342E3,1.0999825E3,1.6002058E3,1.8140159E3,1.0267025E3,5.5853345E2,3.3724048E2,4.0436694E2,4.7335626E2,4.3471555E2,8.231503E2,6.92943E2,9.5033307E2,8.172534E2,9.448903E2,1.0666888E3,1.2496454E3],"tree_param":{"num_deleted":"0","num_feature":"29","num_nodes":"31","size_leaf_vector":"1"}},{"base_weights":[4.903997E-3,-7.803984E-1,8.55187E-1,-1.0005529E0,-2.679179E-1,4.9610567E-1,1.1071132E0,-7.467688E-1,-1.2362397E0,-1.7559537E-1,-7.121502E-1,3.435374E-1,1.1158043E0,7.5482315E-1,1.2032598E0,-5.1259752E-2,-2.9027883E-2,-6.644569E-2,-5.438112E-2,-3.7796018E-3,-2.3553677E-2,9.408878E-3,-4.51784E-2,9.384329E-3,2.6993198E-2,5.944411E-2,1.403788E-2,2.1387905E-2,4.5037303E-2,5.3852685E-2,6.604528E-2],"categories":[],"categories_nodes":[],"categories_segments":[],"categories_sizes":[],"default_left":[0,0,0,0,0,0,0,0,0,0,0,0,0,0,0,0,0,0,0,0,0,0,0,0,0,0,0,0,0,0,0],"id":19,"left_children":[1,3,5,7,9,11,13,15,17,19,21,23,25,27,29,-1,-1,-1,-1,-1,-1,-1,-1,-1,-1,-1,-1,-1,-1,-1,-1],"loss_changes":[9.396227E3,8.251011E2,6.106504E2,3.051338E2,9.008832E1,2.6317133E2,1.3355615E2,1.1354175E2,3.5073242E1,5.3816822E1,6.53409E1,6.838553E1,3.32453E1,4.036502E1,4.485742E1,0E0,0E0,0E0,0E0,0E0,0E0,0E0,0E0,0E0,0E0,0E0,0E0,0E0,0E0,0E0,0E0],"parents":[2147483647,0,0,1,1,2,2,3,3,4,4,5,5,6,6,7,7,8,8,9,9,10,10,11,11,12,12,13,13,14,14],"right_children":[2,4,6,8,10,12,14,16,18,20,22,24,26,28,30,-1,-1,-1,-1,-1,-1,-1,-1,-1,-1,-1,-1,-1,-1,-1,-1],"split_conditions":[6.581579E-5,-5.0971744E-4,8.222045E-4,6E0,8E0,8E0,4E0,-1.6650052E-3,-1.3104045E-3,6.3015234E-1,-3.1475615E-4,5E0,3.8435028E-4,1.2394733E-3,7E0,-5.1259752E-2,-2.9027883E-2,-6.644569E-2,-5.438112E-2,-3.7796018E-3,-2.3553677E-2,9.408878E-3,-4.51784E-2,9.384329E-3,2.6993198E-2,5.944411E-2,1.403788E-2,2.1387905E-2,4.5037303E-2,5.3852685E-2,6.604528E-2],"split_indices":[27,27,27,20,20,20,20,27,27,10,1,20,13,27,20,0,0,0,0,0,0,0,0,0,0,0,0,0,0,0,0],"split_type":[0,0,0,0,0,0,0,0,0,0,0,0,0,0,0,0,0,0,0,0,0,0,0,0,0,0,0,0,0,0,0],"sum_hessian":[1.4069912E4,7.314492E3,6.75542E3,5.1158447E3,2.1986472E3,2.7865708E3,3.968849E3,2.4653555E3,2.6504893E3,1.8214913E3,3.7715588E2,2.237306E3,5.4926483E2,8.52834E2,3.1160151E3,9.1964966E2,1.5457058E3,1.6276096E3,1.02287964E3,1.3618386E3,4.5965268E2,6.613039E1,3.110255E2,1.2483102E3,9.889958E2,5.046752E2,4.4589603E1,2.6432327E2,5.8851074E2,1.5082126E3,1.6078024E3],"tree_param":{"num_deleted":"0","num_feature":"29","num_nodes":"31","size_leaf_vector":"1"}},{"base_weights":[3.498325E-3,-7.879337E-1,7.902452E-1,-1.0664704E0,-4.4332367E-1,4.367761E-1,1.0872475E0,-8.322213E-1,-1.269389E0,-3.1972325E-1,-9.7972447E-1,2.4866827E-1,8.670124E-1,8.332786E-1,1.2177806E0,-5.7572342E-2,-3.6782555E-2,-5.5848606E-2,-6.586724E-2,-2.3468144E-2,-4.9337456E-3,5.2867103E-3,-5.474322E-2,-4.5961835E-5,1.7389154E-2,2.4764655E-2,5.3984966E-2,3.3230398E-2,5.170315E-2,5.4133154E-2,6.513083E-2],"categories":[],"categories_nodes":[],"categories_segments":[],"categories_sizes":[],"default_left":[0,0,0,0,0,0,0,0,0,0,0,0,0,0,0,0,0,0,0,0,0,0,0,0,0,0,0,0,0,0,0],"id":20,"left_children":[1,3,5,7,9,11,13,15,17,19,21,23,25,27,29,-1,-1,-1,-1,-1,-1,-1,-1,-1,-1,-1,-1,-1,-1,-1,-1],"loss_changes":[8.626676E3,6.624824E2,7.289209E2,1.8046631E2,2.0448016E2,2.5666217E2,1.2412598E2,5.388672E1,1.3471191E1,8.304239E1,7.2352295E1,5.466745E1,7.577222E1,4.282007E1,2.7145264E1,0E0,0E0,0E0,0E0,0E0,0E0,0E0,0E0,0E0,0E0,0E0,0E0,0E0,0E0,0E0,0E0],"parents":[2147483647,0,0,1,1,2,2,3,3,4,4,5,5,6,6,7,7,8,8,9,9,10,10,11,11,12,12,13,13,14,14],"right_children":[2,4,6,8,10,12,14,16,18,20,22,24,26,28,30,-1,-1,-1,-1,-1,-1,-1,-1,-1,-1,-1,-1,-1,-1,-1,-1],"split_conditions":[-9.850761E-6,-9.073955E-4,8.600046E-4,6E0,8E0,7E0,5E0,-2.8164869E-3,7E0,6.15767E1,-5.064652E-4,2.0200592E-4,2.9056158E-4,1.7809846E-3,7E0,-5.7572342E-2,-3.6782555E-2,-5.5848606E-2,-6.586724E-2,-2.3468144E-2,-4.9337456E-3,5.2867103E-3,-5.474322E-2,-4.5961835E-5,1.7389154E-2,2.4764655E-2,5.3984966E-2,3.3230398E-2,5.170315E-2,5.4133154E-2,6.513083E-2],"split_indices":[27,27,27,20,20,20,20,27,20,6,1,27,27,27,20,0,0,0,0,0,0,0,0,0,0,0,0,0,0,0,0],"split_type":[0,0,0,0,0,0,0,0,0,0,0,0,0,0,0,0,0,0,0,0,0,0,0,0,0,0,0,0,0,0,0],"sum_hessian":[1.3852629E4,6.9057515E3,6.9468774E3,3.8178315E3,3.0879197E3,3.173041E3,3.7738364E3,1.7744774E3,2.0433541E3,2.5109329E3,5.769869E2,2.208861E3,9.6417993E2,1.2836724E3,2.490164E3,4.0959253E2,1.3648849E3,4.9485452E2,1.5484996E3,1.4966475E3,1.01428534E3,5.5342087E1,5.2164484E2,6.28126E2,1.5807351E3,3.52112E2,6.1206793E2,6.999681E2,5.837042E2,9.6576373E2,1.5244005E3],"tree_param":{"num_deleted":"0","num_feature":"29","num_nodes":"31","size_leaf_vector":"1"}},{"base_weights":[-9.89032E-4,-7.7917993E-1,7.564494E-1,-1.0044024E0,-3.8919982E-1,3.5955277E-1,1.0102675E0,-6.876441E-1,-1.172953E0,-2.6810125E-1,-9.352551E-1,1.9135733E-1,7.7212965E-1,7.213657E-1,1.1649933E0,-5.4964066E-2,-2.9932633E-2,-5.0982434E-2,-6.353695E-2,-2.3077978E-2,-5.612289E-3,9.105695E-3,-5.2096605E-2,2.9657513E-2,7.3316726E-3,2.1538785E-2,4.994154E-2,2.7030317E-2,4.9775355E-2,5.3463638E-2,6.510191E-2],"categories":[],"categories_nodes":[],"categories_segments":[],"categories_sizes":[],"default_left":[0,0,0,0,0,0,0,0,0,0,0,0,0,0,0,0,0,0,0,0,0,0,0,0,0,0,0,0,0,0,0],"id":21,"left_children":[1,3,5,7,9,11,13,15,17,19,21,23,25,27,29,-1,-1,-1,-1,-1,-1,-1,-1,-1,-1,-1,-1,-1,-1,-1,-1],"loss_changes":[7.9809087E3,5.86198E2,6.9086035E2,2.251875E2,1.6153448E2,1.856847E2,1.8621143E2,5.3283997E1,4.010083E1,6.036908E1,5.3076965E1,3.4122513E1,5.9560577E1,7.191351E1,3.4333984E1,0E0,0E0,0E0,0E0,0E0,0E0,0E0,0E0,0E0,0E0,0E0,0E0,0E0,0E0,0E0,0E0],"parents":[2147483647,0,0,1,1,2,2,3,3,4,4,5,5,6,6,7,7,8,8,9,9,10,10,11,11,12,12,13,13,14,14],"right_children":[2,4,6,8,10,12,14,16,18,20,22,24,26,28,30,-1,-1,-1,-1,-1,-1,-1,-1,-1,-1,-1,-1,-1,-1,-1,-1],"split_conditions":[-2.5373112E-5,-7.172489E-4,6.726976E-4,5E0,8E0,7E0,5E0,-2.8164869E-3,7E0,4.07607E1,-4.2650776E-4,4.5E1,2.4745724E-4,1.7435773E-3,8E0,-5.4964066E-2,-2.9932633E-2,-5.0982434E-2,-6.353695E-2,-2.3077978E-2,-5.612289E-3,9.105695E-3,-5.2096605E-2,2.9657513E-2,7.3316726E-3,2.1538785E-2,4.994154E-2,2.7030317E-2,4.9775355E-2,5.3463638E-2,6.510191E-2],"split_indices":[27,27,27,20,20,20,20,27,20,6,13,11,27,27,20,0,0,0,0,0,0,0,0,0,0,0,0,0,0,0,0],"split_type":[0,0,0,0,0,0,0,0,0,0,0,0,0,0,0,0,0,0,0,0,0,0,0,0,0,0,0,0,0,0,0],"sum_hessian":[1.3538005E4,6.6775117E3,6.860493E3,4.231911E3,2.445601E3,2.67695E3,4.183543E3,1.4715314E3,2.7603796E3,2.0029076E3,4.4269342E2,1.9027278E3,7.742223E2,1.461086E3,2.7224568E3,2.5956058E2,1.2119708E3,1.079467E3,1.6809125E3,8.927745E2,1.110133E3,3.8519615E1,4.041738E2,1.8935222E2,1.7133756E3,3.101364E2,4.6408588E2,8.8229987E2,5.787862E2,1.6080781E3,1.1143788E3],"tree_param":{"num_deleted":"0","num_feature":"29","num_nodes":"31","size_leaf_vector":"1"}},{"base_weights":[-2.2382603E-3,-8.825927E-2,1.0519381E-1,-1.5827794E-1,-2.811772E-2,1.2147999E-2,2.4773884E-1,-1.967853E-1,1.5708265E-1,1.0129761E-1,-8.717604E-2,-2.710148E-1,6.739503E-2,8.695366E-3,2.9450196E-1,-1.3697944E-2,-4.794892E-3,1.6072687E-2,-4.9271933E-3,1.5710719E-2,3.8640786E-4,-1.416711E-2,-2.8823316E-3,-3.82304E-2,-7.221613E-3,2.394226E-2,1.1029398E-3,-5.402681E-3,1.9003242E-2,1.7297646E-2,8.757546E-3],"categories":[],"categories_nodes":[],"categories_segments":[],"categories_sizes":[],"default_left":[0,0,0,0,0,0,0,0,0,0,0,0,0,0,0,0,0,0,0,0,0,0,0,0,0,0,0,0,0,0,0],"id":22,"left_children":[1,3,5,7,9,11,13,15,17,19,21,23,25,27,29,-1,-1,-1,-1,-1,-1,-1,-1,-1,-1,-1,-1,-1,-1,-1,-1],"loss_changes":[1.2407119E2,3.1391842E1,7.9176155E1,4.1863052E1,3.0672487E1,5.654154E1,2.6352951E1,2.3879013E1,1.5805481E1,2.5052391E1,1.5944508E1,3.6756546E1,5.639903E1,1.6811338E1,1.2048401E1,0E0,0E0,0E0,0E0,0E0,0E0,0E0,0E0,0E0,0E0,0E0,0E0,0E0,0E0,0E0,0E0],"parents":[2147483647,0,0,1,1,2,2,3,3,4,4,5,5,6,6,7,7,8,8,9,9,10,10,11,11,12,12,13,13,14,14],"right_children":[2,4,6,8,10,12,14,16,18,20,22,24,26,28,30,-1,-1,-1,-1,-1,-1,-1,-1,-1,-1,-1,-1,-1,-1,-1,-1],"split_conditions":[5.2697164E-1,-1.16314775E-4,2.82E2,9E0,5.0563144E-6,-7.0710677E-1,-8.660254E-1,3.6189312E-1,-2.1589121E-4,-2.5881904E-1,-8.660254E-1,5.032601E-6,-5E-1,1.07E2,-4.5592386E-2,-1.3697944E-2,-4.794892E-3,1.6072687E-2,-4.9271933E-3,1.5710719E-2,3.8640786E-4,-1.416711E-2,-2.8823316E-3,-3.82304E-2,-7.221613E-3,2.394226E-2,1.1029398E-3,-5.402681E-3,1.9003242E-2,1.7297646E-2,8.757546E-3],"split_indices":[10,1,11,20,5,18,18,10,13,18,18,17,18,12,26,0,0,0,0,0,0,0,0,0,0,0,0,0,0,0,0],"split_type":[0,0,0,0,0,0,0,0,0,0,0,0,0,0,0,0,0,0,0,0,0,0,0,0,0,0,0,0,0,0,0],"sum_hessian":[1.3423556E4,7.454725E3,5.9688306E3,3.4437603E3,4.010965E3,3.6121177E3,2.3567131E3,3.0693508E3,3.744095E2,1.2566139E3,2.754351E3,5.890579E2,3.0230596E3,3.8579492E2,1.9709182E3,1.7380891E3,1.3312617E3,2.2772313E2,1.4668636E2,3.8292108E2,8.736929E2,3.5924734E2,2.3951038E3,1.1920239E2,4.6985556E2,2.9909088E2,2.7239688E3,2.940593E2,9.173562E1,1.3758889E3,5.9502936E2],"tree_param":{"num_deleted":"0","num_feature":"29","num_nodes":"31","size_leaf_vector":"1"}},{"base_weights":[1.1305943E-4,-7.601408E-1,7.121529E-1,-9.9849194E-1,-4.043828E-1,2.8614196E-1,9.5720106E-1,-6.8689835E-1,-1.1620159E0,-2.821163E-1,-9.343605E-1,1.7777118E-1,7.9910934E-1,6.639949E-1,1.1220763E0,-5.3874213E-2,-2.9737312E-2,-5.0808728E-2,-6.2809885E-2,-2.2794254E-2,-1.0325004E-3,-3.2611617E-3,-5.3537946E-2,4.581073E-4,1.5283671E-2,6.8184757E-3,4.773922E-2,2.5211498E-2,4.914647E-2,4.8772775E-2,6.208086E-2],"categories":[],"categories_nodes":[],"categories_segments":[],"categories_sizes":[],"default_left":[0,0,0,0,0,0,0,0,0,0,0,0,0,0,0,0,0,0,0,0,0,0,0,0,0,0,0,0,0,0,0],"id":23,"left_children":[1,3,5,7,9,11,13,15,17,19,21,23,25,27,29,-1,-1,-1,-1,-1,-1,-1,-1,-1,-1,-1,-1,-1,-1,-1,-1],"loss_changes":[7.294878E3,5.522295E2,7.261521E2,1.9801587E2,1.692717E2,1.4119484E2,2.1278833E2,4.778424E1,3.3852783E1,9.664519E1,5.8020874E1,4.5291183E1,4.5591187E1,8.063806E1,4.831787E1,0E0,0E0,0E0,0E0,0E0,0E0,0E0,0E0,0E0,0E0,0E0,0E0,0E0,0E0,0E0,0E0],"parents":[2147483647,0,0,1,1,2,2,3,3,4,4,5,5,6,6,7,7,8,8,9,9,10,10,11,11,12,12,13,13,14,14],"right_children":[2,4,6,8,10,12,14,16,18,20,22,24,26,28,30,-1,-1,-1,-1,-1,-1,-1,-1,-1,-1,-1,-1,-1,-1,-1,-1],"split_conditions":[-5.9084487E-5,-8.1217557E-4,5.876899E-4,5E0,8E0,8E0,5E0,-2.8164869E-3,7E0,2.18E2,-4.1623204E-4,2.0200592E-4,9.66931E-5,1.8534907E-3,1.566669E-3,-5.3874213E-2,-2.9737312E-2,-5.0808728E-2,-6.2809885E-2,-2.2794254E-2,-1.0325004E-3,-3.2611617E-3,-5.3537946E-2,4.581073E-4,1.5283671E-2,6.8184757E-3,4.773922E-2,2.5211498E-2,4.914647E-2,4.8772775E-2,6.208086E-2],"split_indices":[27,27,27,20,20,20,20,27,20,11,1,27,27,27,27,0,0,0,0,0,0,0,0,0,0,0,0,0,0,0,0],"split_type":[0,0,0,0,0,0,0,0,0,0,0,0,0,0,0,0,0,0,0,0,0,0,0,0,0,0,0,0,0,0,0],"sum_hessian":[1.3473816E4,6.5162583E3,6.9575586E3,3.9009133E3,2.615345E3,2.5414575E3,4.416101E3,1.3443896E3,2.5565237E3,2.1263303E3,4.8901474E2,2.0993005E3,4.4215692E2,1.5912775E3,2.8248235E3,2.5459573E2,1.089794E3,1.0077711E3,1.5487526E3,1.2769404E3,8.493899E2,6.653416E1,4.224806E2,9.060105E2,1.1932902E3,8.4461845E1,3.5769507E2,1.0619115E3,5.29366E2,1.2728239E3,1.5519996E3],"tree_param":{"num_deleted":"0","num_feature":"29","num_nodes":"31","size_leaf_vector":"1"}},{"base_weights":[-3.6647946E-3,-7.145595E-1,7.0757556E-1,-1.0068146E0,-4.044187E-1,4.0087673E-1,1.0253731E0,-7.8198403E-1,-1.2037904E0,-2.882434E-1,-9.117038E-1,2.7555034E-1,9.494777E-1,8.3375245E-1,1.1914024E0,-5.4533847E-2,-3.426492E-2,-5.3095575E-2,-6.244686E-2,-2.2181934E-2,-1.3440197E-3,3.0607512E-2,-4.982951E-2,2.3758996E-3,1.9931113E-2,9.110122E-3,5.1970918E-2,3.2250512E-2,5.003608E-2,5.5225212E-2,6.369483E-2],"categories":[],"categories_nodes":[],"categories_segments":[],"categories_sizes":[],"default_left":[0,0,0,0,0,0,0,0,0,0,0,0,0,0,0,0,0,0,0,0,0,0,0,0,0,0,0,0,0,0,0],"id":24,"left_children":[1,3,5,7,9,11,13,15,17,19,21,23,25,27,29,-1,-1,-1,-1,-1,-1,-1,-1,-1,-1,-1,-1,-1,-1,-1,-1],"loss_changes":[6.680798E3,5.985598E2,6.4336304E2,1.4969946E2,1.8877747E2,2.3094653E2,1.0218677E2,4.6746765E1,1.02751465E1,1.0604933E2,7.786728E1,7.684566E1,4.2938416E1,4.6905396E1,1.1032471E1,0E0,0E0,0E0,0E0,0E0,0E0,0E0,0E0,0E0,0E0,0E0,0E0,0E0,0E0,0E0,0E0],"parents":[2147483647,0,0,1,1,2,2,3,3,4,4,5,5,6,6,7,7,8,8,9,9,10,10,11,11,12,12,13,13,14,14],"right_children":[2,4,6,8,10,12,14,16,18,20,22,24,26,28,30,-1,-1,-1,-1,-1,-1,-1,-1,-1,-1,-1,-1,-1,-1,-1,-1],"split_conditions":[-9.850761E-6,-9.6832844E-4,9.709475E-4,6E0,8E0,8E0,6E0,-2.8164869E-3,7E0,4.4E1,-5.3480617E-4,2.755369E-4,9.66931E-5,1.7435773E-3,8E0,-5.4533847E-2,-3.426492E-2,-5.3095575E-2,-6.244686E-2,-2.2181934E-2,-1.3440197E-3,3.0607512E-2,-4.982951E-2,2.3758996E-3,1.9931113E-2,9.110122E-3,5.1970918E-2,3.2250512E-2,5.003608E-2,5.5225212E-2,6.369483E-2],"split_indices":[27,27,27,20,20,20,20,27,20,12,13,27,27,27,20,0,0,0,0,0,0,0,0,0,0,0,0,0,0,0,0],"split_type":[0,0,0,0,0,0,0,0,0,0,0,0,0,0,0,0,0,0,0,0,0,0,0,0,0,0,0,0,0,0,0],"sum_hessian":[1.3211158E4,6.607182E3,6.603976E3,3.4005212E3,3.206661E3,3.3618232E3,3.242153E3,1.5903016E3,1.8102196E3,2.6104094E3,5.962516E2,2.7378672E3,6.239561E2,1.5078766E3,1.7342764E3,3.768464E2,1.2134552E3,4.4289337E2,1.3673262E3,1.6366373E3,9.73772E2,3.1133915E1,5.651177E2,9.6018536E2,1.7776818E3,6.578406E1,5.5817206E2,7.1007227E2,7.978044E2,8.516009E2,8.826754E2],"tree_param":{"num_deleted":"0","num_feature":"29","num_nodes":"31","size_leaf_vector":"1"}},{"base_weights":[-5.456812E-3,-7.7876234E-1,5.9484136E-1,-5.403835E-1,-1.0355016E0,1.9736175E-1,9.151739E-1,-8.263583E-1,-3.490791E-1,-1.182928E0,-7.895065E-1,3.1272937E-2,4.0945387E-1,6.161488E-1,1.084131E0,-5.5740703E-2,-3.6577616E-2,-2.8838014E-2,-5.3304057E-3,-5.5324692E-2,-6.2691264E-2,-5.4042917E-2,-2.8555939E-2,6.867371E-3,-1.2614324E-2,1.3812045E-2,5.0573766E-2,2.2501754E-2,4.5222037E-2,4.7091447E-2,5.9634127E-2],"categories":[],"categories_nodes":[],"categories_segments":[],"categories_sizes":[],"default_left":[0,0,0,0,0,0,0,0,0,0,0,0,0,0,0,0,0,0,0,0,0,0,0,0,0,0,0,0,0,0,0],"id":25,"left_children":[1,3,5,7,9,11,13,15,17,19,21,23,25,27,29,-1,-1,-1,-1,-1,-1,-1,-1,-1,-1,-1,-1,-1,-1,-1,-1],"loss_changes":[5.9990386E3,3.4508423E2,9.261572E2,1.6004169E2,9.763843E1,1.14401184E2,2.02854E2,3.1288452E1,9.697443E1,7.8112793E0,6.438019E1,5.4856308E1,1.1411069E2,6.935272E1,3.8616943E1,0E0,0E0,0E0,0E0,0E0,0E0,0E0,0E0,0E0,0E0,0E0,0E0,0E0,0E0,0E0,0E0],"parents":[2147483647,0,0,1,1,2,2,3,3,4,4,5,5,6,6,7,7,8,8,9,9,10,10,11,11,12,12,13,13,14,14],"right_children":[2,4,6,8,10,12,14,16,18,20,22,24,26,28,30,-1,-1,-1,-1,-1,-1,-1,-1,-1,-1,-1,-1,-1,-1,-1,-1],"split_conditions":[-2.1522921E-4,6E0,6.3579157E-4,-1.2859873E-3,-9.910451E-4,2.4745724E-4,5E0,-3.1612117E-3,4.1E1,8E0,1.3E2,6.46224E-1,8E0,1.7809846E-3,1.566669E-3,-5.5740703E-2,-3.6577616E-2,-2.8838014E-2,-5.3304057E-3,-5.5324692E-2,-6.2691264E-2,-5.4042917E-2,-2.8555939E-2,6.867371E-3,-1.2614324E-2,1.3812045E-2,5.0573766E-2,2.2501754E-2,4.5222037E-2,4.7091447E-2,5.9634127E-2],"split_indices":[27,20,27,27,27,27,20,27,12,20,11,10,20,27,27,0,0,0,0,0,0,0,0,0,0,0,0,0,0,0,0],"split_type":[0,0,0,0,0,0,0,0,0,0,0,0,0,0,0,0,0,0,0,0,0,0,0,0,0,0,0,0,0,0,0],"sum_hessian":[1.2921008E4,5.6466646E3,7.2743438E3,2.9296396E3,2.7170247E3,3.2469868E3,4.0273567E3,1.1729359E3,1.7567036E3,1.6964955E3,1.0205293E3,1.8216245E3,1.4253623E3,1.4556876E3,2.5716692E3,2.8748325E2,8.854527E2,9.052716E2,8.5143207E2,8.2436163E2,8.721338E2,4.3553342E2,5.849959E2,1.3260781E3,4.9554636E2,1.1683035E3,2.5705884E2,9.251672E2,5.305204E2,1.1170216E3,1.4546477E3],"tree_param":{"num_deleted":"0","num_feature":"29","num_nodes":"31","size_leaf_vector":"1"}},{"base_weights":[2.930431E-3,-7.464459E-1,5.8726794E-1,-1.0237482E0,-5.301816E-1,2.0646304E-1,8.985633E-1,-1.1742382E0,-9.373925E-1,-7.582349E-1,-2.192102E-1,5.5402897E-2,3.993023E-1,7.193527E-1,1.0943215E0,-6.2891796E-2,-5.6245614E-2,-5.165142E-2,-2.5004221E-2,-4.5511905E-2,-2.5092626E-2,-4.901121E-3,-2.1024896E-2,8.153532E-3,-8.599727E-3,3.508869E-2,1.2840712E-2,4.63113E-2,2.8394524E-2,6.042355E-2,5.0552905E-2],"categories":[],"categories_nodes":[],"categories_segments":[],"categories_sizes":[],"default_left":[0,0,0,0,0,0,0,0,0,0,0,0,0,0,0,0,0,0,0,0,0,0,0,0,0,0,0,0,0,0,0],"id":26,"left_children":[1,3,5,7,9,11,13,15,17,19,21,23,25,27,29,-1,-1,-1,-1,-1,-1,-1,-1,-1,-1,-1,-1,-1,-1,-1,-1],"loss_changes":[5.60563E3,3.358142E2,8.5246924E2,3.0822754E1,2.2345453E2,9.425821E1,1.3804224E2,2.2618408E0,6.496802E1,7.042114E1,3.2536217E1,4.4490025E1,6.1084137E1,6.429944E1,1.6736084E1,0E0,0E0,0E0,0E0,0E0,0E0,0E0,0E0,0E0,0E0,0E0,0E0,0E0,0E0,0E0,0E0],"parents":[2147483647,0,0,1,1,2,2,3,3,4,4,5,5,6,6,7,7,8,8,9,9,10,10,11,11,12,12,13,13,14,14],"right_children":[2,4,6,8,10,12,14,16,18,20,22,24,26,28,30,-1,-1,-1,-1,-1,-1,-1,-1,-1,-1,-1,-1,-1,-1,-1,-1],"split_conditions":[-2.1522921E-4,-1.3365983E-3,6.3579157E-4,-2.8915345E-3,2.18E2,2.4745724E-4,1.670602E-3,4.37E2,5.57E2,-5.2613474E-4,5.0611898E-6,6.0763115E-1,4.7158765E-6,1.76E2,3.34E2,-6.2891796E-2,-5.6245614E-2,-5.165142E-2,-2.5004221E-2,-4.5511905E-2,-2.5092626E-2,-4.901121E-3,-2.1024896E-2,8.153532E-3,-8.599727E-3,3.508869E-2,1.2840712E-2,4.63113E-2,2.8394524E-2,6.042355E-2,5.0552905E-2],"split_indices":[27,27,27,27,11,27,27,11,11,27,2,10,5,11,11,0,0,0,0,0,0,0,0,0,0,0,0,0,0,0,0],"split_type":[0,0,0,0,0,0,0,0,0,0,0,0,0,0,0,0,0,0,0,0,0,0,0,0,0,0,0,0,0,0,0],"sum_hessian":[1.2799494E4,5.607697E3,7.191798E3,2.4554683E3,3.1522283E3,3.2355012E3,3.9562966E3,8.90689E2,1.5647792E3,1.8177378E3,1.3344906E3,1.8150072E3,1.4204939E3,2.0678853E3,1.8884115E3,3.2142972E2,5.6925934E2,1.2828645E3,2.819147E2,1.1395654E3,6.781723E2,8.339111E2,5.0057956E2,1.2319762E3,5.83031E2,4.5362354E2,9.6687036E2,8.718972E2,1.195988E3,7.907806E2,1.0976309E3],"tree_param":{"num_deleted":"0","num_feature":"29","num_nodes":"31","size_leaf_vector":"1"}},{"base_weights":[-7.422148E-3,-2.3953994E-1,2.5518226E-2,-1.2759031E-1,-4.6567062E-1,2.2841704E-1,-2.128356E-2,-2.036748E-1,2.560237E-1,-1.4960037E-1,-6.370163E-1,8.77833E-2,3.603416E-1,8.137296E-2,-9.9843E-2,-2.2090172E-2,-7.2914483E-3,2.2942508E-2,-1.9849299E-2,-3.1869214E-2,8.1243383E-4,-4.685826E-2,-1.8236138E-2,-2.6926477E-2,7.833791E-3,2.0806849E-2,4.270036E-3,-2.232223E-3,9.447706E-3,-7.4457563E-3,-1.0596986E-3],"categories":[],"categories_nodes":[],"categories_segments":[],"categories_sizes":[],"default_left":[0,0,0,0,0,0,0,0,0,0,0,0,0,0,0,0,0,0,0,0,0,0,0,0,0,0,0,0,0,0,0],"id":27,"left_children":[1,3,5,7,9,11,13,15,17,19,21,23,25,27,29,-1,-1,-1,-1,-1,-1,-1,-1,-1,-1,-1,-1,-1,-1,-1,-1],"loss_changes":[9.63997E1,3.9605583E1,1.04851845E2,3.068065E1,2.7982872E1,3.8364716E1,7.23689E1,1.2005833E1,2.324479E1,1.4860441E1,2.7110138E1,4.3363373E1,1.6340607E1,5.2749447E1,1.9615753E1,0E0,0E0,0E0,0E0,0E0,0E0,0E0,0E0,0E0,0E0,0E0,0E0,0E0,0E0,0E0,0E0],"parents":[2147483647,0,0,1,1,2,2,3,3,4,4,5,5,6,6,7,7,8,8,9,9,10,10,11,11,12,12,13,13,14,14],"right_children":[2,4,6,8,10,12,14,16,18,20,22,24,26,28,30,-1,-1,-1,-1,-1,-1,-1,-1,-1,-1,-1,-1,-1,-1,-1,-1],"split_conditions":[-8.660254E-1,6.123234E-17,-5E-1,1.06E2,5.322851E-6,-7.0710677E-1,-1.2855357E-1,-5.373975E-4,1.0885121E0,1.8E1,4.6164367E-1,5.0520425E-6,7.7789485E-1,5.592239E-1,4.9E1,-2.2090172E-2,-7.2914483E-3,2.2942508E-2,-1.9849299E-2,-3.1869214E-2,8.1243383E-4,-4.685826E-2,-1.8236138E-2,-2.6926477E-2,7.833791E-3,2.0806849E-2,4.270036E-3,-2.232223E-3,9.447706E-3,-7.4457563E-3,-1.0596986E-3],"split_indices":[18,19,18,12,5,18,26,2,26,12,10,17,26,10,12,0,0,0,0,0,0,0,0,0,0,0,0,0,0,0,0],"split_type":[0,0,0,0,0,0,0,0,0,0,0,0,0,0,0,0,0,0,0,0,0,0,0,0,0,0,0,0,0,0,0],"sum_hessian":[1.2605985E4,1.5658422E3,1.1040143E4,1.048386E3,5.174561E2,2.0685444E3,8.971599E3,8.752596E2,1.7312643E2,1.8256442E2,3.3489166E2,1.0020298E3,1.0665146E3,3.889287E3,5.082311E3,1.6976517E2,7.054944E2,1.323237E2,4.080274E1,4.5601437E1,1.3696298E2,1.5813638E2,1.767553E2,9.862226E1,9.0340753E2,8.861662E2,1.803484E2,1.7914362E3,2.097851E3,3.129071E3,1.9532401E3],"tree_param":{"num_deleted":"0","num_feature":"29","num_nodes":"31","size_leaf_vector":"1"}},{"base_weights":[-4.9518654E-3,-1.0649893E-1,5.538858E-2,-6.4351626E-2,-2.4993016E-1,2.0678818E-2,2.5796732E-1,-3.0878337E-2,-3.0952728E-1,1.4624666E-1,-2.937111E-1,-2.2086705E-1,5.097415E-2,2.7759364E-1,-1.8499618E-2,-1.18793845E-2,2.53733E-4,-2.022732E-2,-7.514243E-3,-1.7776184E-2,2.0611076E-2,-1.6780721E-2,2.3996786E-3,4.4577154E-3,-1.5918225E-2,1.3933077E-2,2.027761E-4,1.1519919E-2,2.7225256E-2],"categories":[],"categories_nodes":[],"categories_segments":[],"categories_sizes":[],"default_left":[0,0,0,0,0,0,0,0,0,0,0,0,0,0,0,0,0,0,0,0,0,0,0,0,0,0,0,0,0],"id":28,"left_children":[1,3,5,7,9,11,13,15,17,19,21,23,25,27,-1,-1,-1,-1,-1,-1,-1,-1,-1,-1,-1,-1,-1,-1,-1],"loss_changes":[7.6853966E1,2.8245567E1,5.5316036E1,2.9654976E1,1.8453148E1,4.9171066E1,1.4285439E1,2.3645626E1,6.507641E0,1.4331904E1,1.3706406E1,2.2663826E1,6.3775642E1,1.3938644E1,0E0,0E0,0E0,0E0,0E0,0E0,0E0,0E0,0E0,0E0,0E0,0E0,0E0,0E0,0E0],"parents":[2147483647,0,0,1,1,2,2,3,3,4,4,5,5,6,6,7,7,8,8,9,9,10,10,11,11,12,12,13,13],"right_children":[2,4,6,8,10,12,14,16,18,20,22,24,26,28,-1,-1,-1,-1,-1,-1,-1,-1,-1,-1,-1,-1,-1,-1,-1],"split_conditions":[-1.334999E-4,8.9715284E-1,1.898722E2,9.659258E-1,-8.660254E-1,-8.660254E-1,1E0,-8.660254E-1,1.2508709E-6,5.933694E-6,9E0,4.882027E-6,-5E-1,5.09831E2,-1.8499618E-2,-1.18793845E-2,2.53733E-4,-2.022732E-2,-7.514243E-3,-1.7776184E-2,2.0611076E-2,-1.6780721E-2,2.3996786E-3,4.4577154E-3,-1.5918225E-2,1.3933077E-2,2.027761E-4,1.1519919E-2,2.7225256E-2],"split_indices":[28,26,6,19,19,18,18,18,14,5,20,5,18,6,0,0,0,0,0,0,0,0,0,0,0,0,0,0,0],"split_type":[0,0,0,0,0,0,0,0,0,0,0,0,0,0,0,0,0,0,0,0,0,0,0,0,0,0,0,0,0],"sum_hessian":[1.2540719E4,4.674026E3,7.866693E3,3.6136133E3,1.0604126E3,6.7169204E3,1.1497725E3,3.1805112E3,4.3310217E2,1.0529052E2,9.551221E2,7.4786584E2,5.9690547E3,1.1154675E3,3.4305E1,4.7039548E2,2.7101157E3,2.702844E2,1.6281776E2,3.6359825E1,6.8930695E1,8.5080536E2,1.0431667E2,1.7894476E2,5.689211E2,1.0190166E3,4.950038E3,9.494492E2,1.6601828E2],"tree_param":{"num_deleted":"0","num_feature":"29","num_nodes":"29","size_leaf_vector":"1"}},{"base_weights":[-2.0033245E-3,-5.9350006E-2,1.0703685E-1,-1.3865176E-1,-2.298282E-2,1.3958885E-1,-1.554355E-1,-3.1297494E-2,-2.209495E-1,5.446258E-3,-1.2594159E-1,9.914971E-2,3.5494462E-1,-3.616368E-2,-5.017277E-1,-6.8729282E-3,2.7263751E-3,-1.2289998E-2,1.2125573E-2,-1.26993E-3,1.1155914E-2,-3.3550348E-2,-5.0227977E-3,5.824923E-3,-1.3944441E-2,2.093724E-2,1.8949489E-3,2.002648E-2,-4.670031E-3,-1.4601237E-2,-3.449597E-2],"categories":[],"categories_nodes":[],"categories_segments":[],"categories_sizes":[],"default_left":[0,0,0,0,0,0,0,0,0,0,0,0,0,0,0,0,0,0,0,0,0,0,0,0,0,0,0,0,0,0,0],"id":29,"left_children":[1,3,5,7,9,11,13,15,17,19,21,23,25,27,29,-1,-1,-1,-1,-1,-1,-1,-1,-1,-1,-1,-1,-1,-1,-1,-1],"loss_changes":[7.872743E1,2.3792055E1,3.7096817E1,2.2910442E1,1.6561502E1,3.358998E1,1.9776634E1,1.0273846E1,1.6968613E1,2.978007E1,1.693937E1,2.1360994E1,1.232325E1,8.97452E0,4.6408997E0,0E0,0E0,0E0,0E0,0E0,0E0,0E0,0E0,0E0,0E0,0E0,0E0,0E0,0E0,0E0,0E0],"parents":[2147483647,0,0,1,1,2,2,3,3,4,4,5,5,6,6,7,7,8,8,9,9,10,10,11,11,12,12,13,13,14,14],"right_children":[2,4,6,8,10,12,14,16,18,20,22,24,26,28,30,-1,-1,-1,-1,-1,-1,-1,-1,-1,-1,-1,-1,-1,-1,-1,-1],"split_conditions":[1.7165871E-4,-4.0718785E-4,9E0,5.240858E-1,8.660254E-1,6.74E2,4.02464E-4,-9.676889E-6,7.2956353E-1,7.0710677E-1,6.317856E-2,1E0,8.379062E-4,-1.7701183E-4,8.235294E1,-6.8729282E-3,2.7263751E-3,-1.2289998E-2,1.2125573E-2,-1.26993E-3,1.1155914E-2,-3.3550348E-2,-5.0227977E-3,5.824923E-3,-1.3944441E-2,2.093724E-2,1.8949489E-3,2.002648E-2,-4.670031E-3,-1.4601237E-2,-3.449597E-2],"split_indices":[28,28,20,8,19,11,13,25,9,19,9,19,13,13,23,0,0,0,0,0,0,0,0,0,0,0,0,0,0,0,0],"split_type":[0,0,0,0,0,0,0,0,0,0,0,0,0,0,0,0,0,0,0,0,0,0,0,0,0,0,0,0,0,0,0],"sum_hessian":[1.2588145E4,8.249829E3,4.3383154E3,2.5929243E3,5.656905E3,3.8600564E3,4.7825873E2,1.1257745E3,1.4671497E3,4.433633E3,1.2232721E3,3.2510417E3,6.090147E2,3.5655615E2,1.21702545E2,5.0299463E2,6.227799E2,1.3929313E3,7.421839E1,3.8841228E3,5.4951E2,5.3510292E1,1.1697617E3,3.1090544E3,1.4198729E2,5.0672412E2,1.022906E2,4.062292E1,3.1593326E2,5.876837E1,6.2934177E1],"tree_param":{"num_deleted":"0","num_feature":"29","num_nodes":"31","size_leaf_vector":"1"}},{"base_weights":[8.290647E-3,-7.2185874E-1,5.6052774E-1,-9.481416E-1,-4.4676954E-1,1.9119109E-1,8.7613815E-1,-1.0454462E0,-7.855966E-1,-6.54104E-1,-1.6293938E-1,2.2634806E-2,3.7264135E-1,7.060325E-1,1.0630453E0,-5.7042688E-2,-4.6830367E-2,-4.7415916E-2,-1.9968145E-2,-4.1346084E-2,-2.2136016E-2,4.113428E-3,-1.628208E-2,6.373666E-3,-1.3242871E-2,3.632755E-2,1.3967852E-2,4.3669585E-2,2.779463E-2,5.835399E-2,4.846314E-2],"categories":[],"categories_nodes":[],"categories_segments":[],"categories_sizes":[],"default_left":[0,0,0,0,0,0,0,0,0,0,0,0,0,0,0,0,0,0,0,0,0,0,0,0,0,0,0,0,0,0,0],"id":30,"left_children":[1,3,5,7,9,11,13,15,17,19,21,23,25,27,29,-1,-1,-1,-1,-1,-1,-1,-1,-1,-1,-1,-1,-1,-1,-1,-1],"loss_changes":[5.062895E3,3.3616064E2,8.3318286E2,4.608789E1,1.4361649E2,1.00782005E2,1.2180493E2,1.8165161E1,6.967468E1,5.1178772E1,4.1210888E1,5.1558506E1,5.21895E1,5.029712E1,1.6768799E1,0E0,0E0,0E0,0E0,0E0,0E0,0E0,0E0,0E0,0E0,0E0,0E0,0E0,0E0,0E0,0E0],"parents":[2147483647,0,0,1,1,2,2,3,3,4,4,5,5,6,6,7,7,8,8,9,9,10,10,11,11,12,12,13,13,14,14],"right_children":[2,4,6,8,10,12,14,16,18,20,22,24,26,28,30,-1,-1,-1,-1,-1,-1,-1,-1,-1,-1,-1,-1,-1,-1,-1,-1],"split_conditions":[-2.3072693E-4,-1.0335561E-3,6.3579157E-4,-1.6650052E-3,2.18E2,2.0200592E-4,1.670602E-3,4.32E2,3.34E2,-5.2613474E-4,-1.6529097E-4,6.46224E-1,6.9E1,1.96E2,3.81E2,-5.7042688E-2,-4.6830367E-2,-4.7415916E-2,-1.9968145E-2,-4.1346084E-2,-2.2136016E-2,4.113428E-3,-1.628208E-2,6.373666E-3,-1.3242871E-2,3.632755E-2,1.3967852E-2,4.3669585E-2,2.779463E-2,5.835399E-2,4.846314E-2],"split_indices":[27,27,27,27,11,27,27,11,11,27,13,10,11,11,11,0,0,0,0,0,0,0,0,0,0,0,0,0,0,0,0],"split_type":[0,0,0,0,0,0,0,0,0,0,0,0,0,0,0,0,0,0,0,0,0,0,0,0,0,0,0,0,0,0,0],"sum_hessian":[1.2554294E4,5.406153E3,7.148141E3,2.9648665E3,2.4412864E3,3.2944658E3,3.8536755E3,1.8512291E3,1.1136375E3,1.4099967E3,1.0312898E3,1.7084989E3,1.5859669E3,2.0200182E3,1.8336573E3,9.814306E2,8.697985E2,7.825085E2,3.311289E2,7.7416364E2,6.3583307E2,4.115454E2,6.197444E2,1.252362E3,4.5613678E2,3.2941547E2,1.2565514E3,9.5295447E2,1.0670638E3,8.638876E2,9.697697E2],"tree_param":{"num_deleted":"0","num_feature":"29","num_nodes":"31","size_leaf_vector":"1"}},{"base_weights":[-2.5637539E-3,-2.0988157E-1,2.6827913E-2,-3.0696553E-1,-2.576161E-2,1.6786996E-1,-2.9111836E-2,-8.205426E-2,-3.8660637E-1,-5.4012525E-1,4.6237145E-2,2.0235969E-1,1.6279526E-2,-9.985221E-2,7.467946E-2,-3.0341515E-2,2.4121478E-3,-1.02205705E-2,-2.4879673E-2,1.4903077E-3,-4.069246E-2,1.5023929E-2,-3.1193255E-3,6.075911E-3,1.4108382E-2,-6.4191157E-3,1.0378665E-2,-9.217891E-3,-1.2446049E-3,-1.9018647E-3,9.055122E-3],"categories":[],"categories_nodes":[],"categories_segments":[],"categories_sizes":[],"default_left":[0,0,0,0,0,0,0,0,0,0,0,0,0,0,0,0,0,0,0,0,0,0,0,0,0,0,0,0,0,0,0],"id":31,"left_children":[1,3,5,7,9,11,13,15,17,19,21,23,25,27,29,-1,-1,-1,-1,-1,-1,-1,-1,-1,-1,-1,-1,-1,-1,-1,-1],"loss_changes":[7.5608864E1,2.7532356E1,8.574914E1,1.8036156E1,1.9764269E1,1.6133324E1,5.7146664E1,1.8152205E1,1.4956085E1,1.02466755E1,1.2956714E1,1.6187096E1,1.58872795E1,2.9314362E1,3.7851295E1,0E0,0E0,0E0,0E0,0E0,0E0,0E0,0E0,0E0,0E0,0E0,0E0,0E0,0E0,0E0,0E0],"parents":[2147483647,0,0,1,1,2,2,3,3,4,4,5,5,6,6,7,7,8,8,9,9,10,10,11,11,12,12,13,13,14,14],"right_children":[2,4,6,8,10,12,14,16,18,20,22,24,26,28,30,-1,-1,-1,-1,-1,-1,-1,-1,-1,-1,-1,-1,-1,-1,-1,-1],"split_conditions":[-8.660254E-1,2.523314E2,-2.5881904E-1,4.907856E-6,2.5059378E-1,7.37E2,5.474046E-1,5.032601E-6,-9.659258E-1,-9.659258E-1,-9.659258E-1,2.18E2,2.4146293E-4,-1.334999E-4,3.5E1,-3.0341515E-2,2.4121478E-3,-1.02205705E-2,-2.4879673E-2,1.4903077E-3,-4.069246E-2,1.5023929E-2,-3.1193255E-3,6.075911E-3,1.4108382E-2,-6.4191157E-3,1.0378665E-2,-9.217891E-3,-1.2446049E-3,-1.9018647E-3,9.055122E-3],"split_indices":[18,7,18,5,10,11,10,17,18,18,18,11,28,28,12,0,0,0,0,0,0,0,0,0,0,0,0,0,0,0,0],"split_type":[0,0,0,0,0,0,0,0,0,0,0,0,0,0,0,0,0,0,0,0,0,0,0,0,0,0,0,0,0,0,0],"sum_hessian":[1.2406363E4,1.5397067E3,1.0866656E4,1.00769543E3,5.320113E2,3.085392E3,7.781264E3,2.640448E2,7.4365063E2,6.452669E1,4.6748462E2,2.5132456E3,5.721464E2,4.6274204E3,3.1538438E3,5.1792324E1,2.1225247E2,2.825924E2,4.6105823E2,2.12248E1,4.3301888E1,1.3941278E2,3.280718E2,1.2497917E3,1.263454E3,3.2596854E2,2.4617789E2,2.1745276E3,2.4528928E3,1.5319441E3,1.6218997E3],"tree_param":{"num_deleted":"0","num_feature":"29","num_nodes":"31","size_leaf_vector":"1"}},{"base_weights":[-3.6261412E-5,-1.8693651E-1,2.6169429E-2,-8.954017E-2,-3.881496E-1,1.5797608E-1,-2.6003467E-2,-1.6257712E-1,2.027999E-1,-4.8506954E-1,1.2472139E-1,2.0131019E-1,-4.5271967E-2,-1.0162202E-1,5.9322495E-2,1.8189037E-2,-9.802165E-3,-4.1714334E-3,2.6799126E-2,-7.559172E-4,-3.0705897E-2,-3.33662E-2,2.0652667E-2,1.2598507E-2,-6.5350374E-5,-1.2846284E-2,4.8374E-3,2.6637584E-3,-6.833584E-3,1.5092305E-3,2.3021365E-2],"categories":[],"categories_nodes":[],"categories_segments":[],"categories_sizes":[],"default_left":[0,0,0,0,0,0,0,0,0,0,0,0,0,0,0,0,0,0,0,0,0,0,0,0,0,0,0,0,0,0,0],"id":32,"left_children":[1,3,5,7,9,11,13,15,17,19,21,23,25,27,29,-1,-1,-1,-1,-1,-1,-1,-1,-1,-1,-1,-1,-1,-1,-1,-1],"loss_changes":[6.0579906E1,2.9772503E1,7.460084E1,2.1943726E1,2.4705055E1,2.7104103E1,5.0155094E1,1.4544167E1,1.9649586E1,2.5292168E1,1.8453253E1,2.6030106E1,1.6300257E1,2.2380295E1,4.267318E1,0E0,0E0,0E0,0E0,0E0,0E0,0E0,0E0,0E0,0E0,0E0,0E0,0E0,0E0,0E0,0E0],"parents":[2147483647,0,0,1,1,2,2,3,3,4,4,5,5,6,6,7,7,8,8,9,9,10,10,11,11,12,12,13,13,14,14],"right_children":[2,4,6,8,10,12,14,16,18,20,22,24,26,28,30,-1,-1,-1,-1,-1,-1,-1,-1,-1,-1,-1,-1,-1,-1,-1,-1],"split_conditions":[-8.660254E-1,6.123234E-17,-2.5881904E-1,5.452137E-4,7.132718E-1,7.68E2,2.2684893E-5,5.1E1,8.7E1,4.882027E-6,2E1,8.660254E-1,-3.8287614E-4,-4.526005E-1,7.11E2,1.8189037E-2,-9.802165E-3,-4.1714334E-3,2.6799126E-2,-7.559172E-4,-3.0705897E-2,-3.33662E-2,2.0652667E-2,1.2598507E-2,-6.5350374E-5,-1.2846284E-2,4.8374E-3,2.6637584E-3,-6.833584E-3,1.5092305E-3,2.3021365E-2],"split_indices":[18,19,18,28,10,11,28,11,12,5,12,19,28,26,11,0,0,0,0,0,0,0,0,0,0,0,0,0,0,0,0],"split_type":[0,0,0,0,0,0,0,0,0,0,0,0,0,0,0,0,0,0,0,0,0,0,0,0,0,0,0,0,0,0,0],"sum_hessian":[1.2366675E4,1.5199788E3,1.0846696E4,1.0251865E3,4.9479224E2,3.0753296E3,7.771366E3,8.2061224E2,2.0457425E2,4.1619574E2,7.859651E1,2.534882E3,5.404476E2,4.1199478E3,3.6514185E3,4.846601E1,7.7214624E2,1.1044414E2,9.413012E1,8.990584E1,3.262899E2,2.0625101E1,5.797141E1,2.0276654E3,5.072166E2,2.1669536E2,3.2375223E2,7.601314E2,3.3598167E3,3.405131E3,2.4628735E2],"tree_param":{"num_deleted":"0","num_feature":"29","num_nodes":"31","size_leaf_vector":"1"}},{"base_weights":[5.611104E-3,-6.96347E-1,5.4708797E-1,-4.5106652E-1,-9.7023505E-1,2.339096E-1,9.056921E-1,-7.4511987E-1,-2.924619E-1,-1.138971E0,-7.009507E-1,7.488448E-2,4.7451687E-1,6.9234765E-1,1.1039808E0,-5.1235706E-2,-3.2224543E-2,-2.2062983E-2,3.3826863E-3,-5.0146054E-2,-5.9131365E-2,-2.2492744E-2,-4.969513E-2,2.494744E-2,2.205482E-3,9.3525825E-3,3.778746E-2,2.564619E-2,4.5378875E-2,5.0167907E-2,6.0133934E-2],"categories":[],"categories_nodes":[],"categories_segments":[],"categories_sizes":[],"default_left":[0,0,0,0,0,0,0,0,0,0,0,0,0,0,0,0,0,0,0,0,0,0,0,0,0,0,0,0,0,0,0],"id":33,"left_children":[1,3,5,7,9,11,13,15,17,19,21,23,25,27,29,-1,-1,-1,-1,-1,-1,-1,-1,-1,-1,-1,-1,-1,-1,-1,-1],"loss_changes":[4.6855474E3,3.6019263E2,7.813511E2,1.3194806E2,1.1440137E2,1.4215665E2,1.364668E2,2.7257996E1,9.87623E1,8.062012E0,7.158664E1,2.919309E1,1.1939548E2,5.99834E1,1.5474121E1,0E0,0E0,0E0,0E0,0E0,0E0,0E0,0E0,0E0,0E0,0E0,0E0,0E0,0E0,0E0,0E0],"parents":[2147483647,0,0,1,1,2,2,3,3,4,4,5,5,6,6,7,7,8,8,9,9,10,10,11,11,12,12,13,13,14,14],"right_children":[2,4,6,8,10,12,14,16,18,20,22,24,26,28,30,-1,-1,-1,-1,-1,-1,-1,-1,-1,-1,-1,-1,-1,-1,-1,-1],"split_conditions":[-2.1522921E-4,6E0,8.222045E-4,-1.3913295E-3,-9.910451E-4,6E0,6E0,-3.1612117E-3,3.3E2,7E0,8E0,2.24285E1,2.755369E-4,1.7435773E-3,8E0,-5.1235706E-2,-3.2224543E-2,-2.2062983E-2,3.3826863E-3,-5.0146054E-2,-5.9131365E-2,-2.2492744E-2,-4.969513E-2,2.494744E-2,2.205482E-3,9.3525825E-3,3.778746E-2,2.564619E-2,4.5378875E-2,5.0167907E-2,6.0133934E-2],"split_indices":[27,20,27,27,27,20,20,27,11,20,20,7,27,27,20,0,0,0,0,0,0,0,0,0,0,0,0,0,0,0,0],"split_type":[0,0,0,0,0,0,0,0,0,0,0,0,0,0,0,0,0,0,0,0,0,0,0,0,0,0,0,0,0,0,0],"sum_hessian":[1.2325334E4,5.367171E3,6.9581626E3,2.8328542E3,2.5343167E3,3.7152183E3,3.2429446E3,9.912943E2,1.8415599E3,1.5560514E3,9.782653E2,2.2376165E3,1.4776018E3,1.5643291E3,1.6786155E3,2.5992337E2,7.31371E2,1.3029591E3,5.3860077E2,3.8383755E2,1.1722137E3,5.281293E2,4.5013605E2,1.503699E2,2.0872466E3,7.315271E2,7.460747E2,8.5497345E2,7.093556E2,8.367325E2,8.4188306E2],"tree_param":{"num_deleted":"0","num_feature":"29","num_nodes":"31","size_leaf_vector":"1"}},{"base_weights":[-5.1178033E-3,-6.1579716E-1,5.80033E-1,-8.814282E-1,-3.3241072E-1,2.6100832E-1,8.548829E-1,-1.0090655E0,-7.12864E-1,-5.6061155E-1,-1.6802205E-1,1.5082683E-1,4.4610712E-1,6.8866E-1,1.0510331E0,-5.4650128E-2,-4.3386515E-2,-4.49974E-2,-1.5158742E-2,-4.2474292E-2,-1.4272498E-2,-1.7288087E-3,-1.8209169E-2,2.9071376E-2,4.528917E-3,4.118031E-2,1.5358197E-2,4.3646846E-2,2.7230043E-2,5.904604E-2,4.9120076E-2],"categories":[],"categories_nodes":[],"categories_segments":[],"categories_sizes":[],"default_left":[0,0,0,0,0,0,0,0,0,0,0,0,0,0,0,0,0,0,0,0,0,0,0,0,0,0,0,0,0,0,0],"id":34,"left_children":[1,3,5,7,9,11,13,15,17,19,21,23,25,27,29,-1,-1,-1,-1,-1,-1,-1,-1,-1,-1,-1,-1,-1,-1,-1,-1],"loss_changes":[4.3396636E3,4.4704004E2,5.435764E2,6.526221E1,1.07824646E2,5.8499283E1,1.0788672E2,1.9727417E1,1.012771E2,9.547333E1,4.3797665E1,4.668769E1,5.5923965E1,4.7468567E1,1.2444214E1,0E0,0E0,0E0,0E0,0E0,0E0,0E0,0E0,0E0,0E0,0E0,0E0,0E0,0E0,0E0,0E0],"parents":[2147483647,0,0,1,1,2,2,3,3,4,4,5,5,6,6,7,7,8,8,9,9,10,10,11,11,12,12,13,13,14,14],"right_children":[2,4,6,8,10,12,14,16,18,20,22,24,26,28,30,-1,-1,-1,-1,-1,-1,-1,-1,-1,-1,-1,-1,-1,-1,-1,-1],"split_conditions":[-4.022789E-5,-9.272657E-4,7.6602143E-4,-1.6650052E-3,1.46E2,4.259562E-4,1.8534907E-3,5.35E2,3.21E2,-4.1225343E-4,9.996102E-6,4.5E1,9.1E1,1.96E2,2.92E2,-5.4650128E-2,-4.3386515E-2,-4.49974E-2,-1.5158742E-2,-4.2474292E-2,-1.4272498E-2,-1.7288087E-3,-1.8209169E-2,2.9071376E-2,4.528917E-3,4.118031E-2,1.5358197E-2,4.3646846E-2,2.7230043E-2,5.904604E-2,4.9120076E-2],"split_indices":[27,27,27,27,11,27,27,11,11,27,2,11,11,11,11,0,0,0,0,0,0,0,0,0,0,0,0,0,0,0,0],"split_type":[0,0,0,0,0,0,0,0,0,0,0,0,0,0,0,0,0,0,0,0,0,0,0,0,0,0,0,0,0,0,0],"sum_hessian":[1.2142371E4,5.9415522E3,6.2008184E3,3.0657625E3,2.8757898E3,2.8706904E3,3.330128E3,1.741846E3,1.3239165E3,1.203168E3,1.6726218E3,1.8006528E3,1.0700377E3,1.8050186E3,1.5251094E3,1.0886049E3,6.5324115E2,9.080568E2,4.158597E2,5.859402E2,6.1722784E2,9.9613855E2,6.7648334E2,2.1995644E2,1.5806963E3,2.8655634E2,7.834813E2,7.897414E2,1.0152771E3,5.2165485E2,1.00345447E3],"tree_param":{"num_deleted":"0","num_feature":"29","num_nodes":"31","size_leaf_vector":"1"}},{"base_weights":[-4.7394815E-3,-2.0391096E-1,2.3468025E-2,-2.9317188E-1,-3.0488672E-2,1.5910578E-1,-3.0712428E-2,-6.475817E-2,-3.5222334E-1,2.6384944E-1,-1.517502E-1,2.0280765E-1,-3.6282416E-2,-9.213349E-2,5.196879E-2,-2.4521008E-2,2.8497088E-3,-3.4274887E-2,-1.5066809E-2,-1.4123209E-2,1.7695598E-2,-4.0035244E-2,-2.8168967E-3,5.536838E-3,1.4682077E-2,-1.1641769E-2,2.5280765E-3,3.7780663E-3,-5.5997656E-3,1.2157996E-3,2.08952E-2],"categories":[],"categories_nodes":[],"categories_segments":[],"categories_sizes":[],"default_left":[0,0,0,0,0,0,0,0,0,0,0,0,0,0,0,0,0,0,0,0,0,0,0,0,0,0,0,0,0,0,0],"id":35,"left_children":[1,3,5,7,9,11,13,15,17,19,21,23,25,27,29,-1,-1,-1,-1,-1,-1,-1,-1,-1,-1,-1,-1,-1,-1,-1,-1],"loss_changes":[6.719388E1,2.2958782E1,7.699663E1,1.3187874E1,1.8074802E1,2.5543037E1,3.802692E1,1.0518469E1,1.2987968E1,7.37189E0,2.2152218E1,2.0407593E1,9.356791E0,1.43179245E1,3.2288837E1,0E0,0E0,0E0,0E0,0E0,0E0,0E0,0E0,0E0,0E0,0E0,0E0,0E0,0E0,0E0,0E0],"parents":[2147483647,0,0,1,1,2,2,3,3,4,4,5,5,6,6,7,7,8,8,9,9,10,10,11,11,12,12,13,13,14,14],"right_children":[2,4,6,8,10,12,14,16,18,20,22,24,26,28,30,-1,-1,-1,-1,-1,-1,-1,-1,-1,-1,-1,-1,-1,-1,-1,-1],"split_conditions":[-8.660254E-1,2.523314E2,-2.5881904E-1,4.7297253E-6,-9.659258E-1,7.37E2,6.929746E-5,5.032601E-6,5.0698204E-6,2.640735E-1,2.6428586E-1,2.18E2,-7.0710677E-1,5.3E1,7.11E2,-2.4521008E-2,2.8497088E-3,-3.4274887E-2,-1.5066809E-2,-1.4123209E-2,1.7695598E-2,-4.0035244E-2,-2.8168967E-3,5.536838E-3,1.4682077E-2,-1.1641769E-2,2.5280765E-3,3.7780663E-3,-5.5997656E-3,1.2157996E-3,2.08952E-2],"split_indices":[18,7,18,5,18,11,28,17,17,8,10,11,18,11,11,0,0,0,0,0,0,0,0,0,0,0,0,0,0,0,0],"split_type":[0,0,0,0,0,0,0,0,0,0,0,0,0,0,0,0,0,0,0,0,0,0,0,0,0,0,0,0,0,0,0],"sum_hessian":[1.1958332E4,1.4827185E3,1.0475613E4,9.784282E2,5.0429025E2,2.9895369E3,7.486076E3,2.0142061E2,7.770076E2,1.4679613E2,3.5749414E2,2.4430662E3,5.464709E2,4.295202E3,3.190874E3,4.412519E1,1.5729543E2,1.0127279E2,6.7573486E2,2.0472841E1,1.2632329E2,4.4875763E1,3.1261838E2,1.2143738E3,1.2286923E3,1.66945E2,3.7952588E2,4.5455502E2,3.8406472E3,2.9676804E3,2.2319368E2],"tree_param":{"num_deleted":"0","num_feature":"29","num_nodes":"31","size_leaf_vector":"1"}},{"base_weights":[5.163574E-4,-6.698638E-1,5.037151E-1,-4.8657137E-1,-1.0194346E0,2.2128482E-1,8.686843E-1,-8.284875E-1,-3.0168483E-1,-1.1199573E0,-6.662122E-1,7.8848265E-2,4.3726298E-1,5.820125E-1,1.030905E0,-2.9167578E-2,-4.772724E-2,-2.7588988E-2,-8.419431E-3,-2.2148397E-2,-5.649668E-2,-5.9589084E-2,-2.4705768E-2,1.3399312E-2,5.311752E-4,5.544577E-3,3.6023557E-2,2.0245967E-2,4.12124E-2,4.6342704E-2,5.917185E-2],"categories":[],"categories_nodes":[],"categories_segments":[],"categories_sizes":[],"default_left":[0,0,0,0,0,0,0,0,0,0,0,0,0,0,0,0,0,0,0,0,0,0,0,0,0,0,0,0,0,0,0],"id":36,"left_children":[1,3,5,7,9,11,13,15,17,19,21,23,25,27,29,-1,-1,-1,-1,-1,-1,-1,-1,-1,-1,-1,-1,-1,-1,-1,-1],"loss_changes":[4.018594E3,3.267849E2,7.0124646E2,2.1169989E2,6.160669E1,1.1802188E2,1.3743945E2,3.5786865E1,7.250362E1,8.72229E0,3.482274E1,2.9853165E1,1.4086484E2,4.5781372E1,2.8968262E1,0E0,0E0,0E0,0E0,0E0,0E0,0E0,0E0,0E0,0E0,0E0,0E0,0E0,0E0,0E0,0E0],"parents":[2147483647,0,0,1,1,2,2,3,3,4,4,5,5,6,6,7,7,8,8,9,9,10,10,11,11,12,12,13,13,14,14],"right_children":[2,4,6,8,10,12,14,16,18,20,22,24,26,28,30,-1,-1,-1,-1,-1,-1,-1,-1,-1,-1,-1,-1,-1,-1,-1,-1],"split_conditions":[-2.3072693E-4,7E0,8.600046E-4,-1.4494003E-3,-6.282442E-4,6E0,5E0,4E0,1.52E2,-9.803026E-4,4.72753E1,-5E-1,2.4745724E-4,1.7809846E-3,8E0,-2.9167578E-2,-4.772724E-2,-2.7588988E-2,-8.419431E-3,-2.2148397E-2,-5.649668E-2,-5.9589084E-2,-2.4705768E-2,1.3399312E-2,5.311752E-4,5.544577E-3,3.6023557E-2,2.0245967E-2,4.12124E-2,4.6342704E-2,5.917185E-2],"split_indices":[27,20,27,27,27,20,20,20,11,13,7,18,27,27,20,0,0,0,0,0,0,0,0,0,0,0,0,0,0,0,0],"split_type":[0,0,0,0,0,0,0,0,0,0,0,0,0,0,0,0,0,0,0,0,0,0,0,0,0,0,0,0,0,0,0],"sum_hessian":[1.1910789E4,5.106881E3,6.803908E3,3.351803E3,1.7550779E3,3.8365852E3,2.9673232E3,1.1751262E3,2.1766765E3,1.3645681E3,3.9050974E2,2.3127214E3,1.5238638E3,1.0739886E3,1.8933345E3,4.0098428E2,7.7414197E2,7.556884E2,1.4209882E3,2.0476032E1,1.344092E3,9.4867455E1,2.9564227E2,6.1230743E2,1.7004141E3,7.086274E2,8.1523645E2,6.219593E2,4.5202936E2,1.1297458E3,7.635886E2],"tree_param":{"num_deleted":"0","num_feature":"29","num_nodes":"31","size_leaf_vector":"1"}},{"base_weights":[1.5861167E-3,-6.4236414E-1,4.810849E-1,-8.735392E-1,-4.2062417E-1,2.2754441E-1,8.529307E-1,-1.0889342E0,-7.784332E-1,-7.421168E-1,-2.4782623E-1,6.721553E-2,4.252266E-1,6.7393076E-1,1.0098193E0,-3.9807286E-2,-5.5499233E-2,-4.370595E-2,-1.628887E-2,-1.351853E-2,-4.014174E-2,2.1489363E-3,-1.7289279E-2,8.172272E-3,-3.5316825E-3,3.6705703E-2,1.33411875E-2,3.822099E-2,1.2799499E-2,5.8130104E-2,4.6461742E-2],"categories":[],"categories_nodes":[],"categories_segments":[],"categories_sizes":[],"default_left":[0,0,0,0,0,0,0,0,0,0,0,0,0,0,0,0,0,0,0,0,0,0,0,0,0,0,0,0,0,0,0],"id":37,"left_children":[1,3,5,7,9,11,13,15,17,19,21,23,25,27,29,-1,-1,-1,-1,-1,-1,-1,-1,-1,-1,-1,-1,-1,-1,-1,-1],"loss_changes":[3.6389373E3,2.574746E2,6.366655E2,4.958081E1,1.425506E2,1.27314316E2,7.621802E1,3.7479858E0,7.38313E1,2.5496307E1,4.7662964E1,2.9456657E1,8.783377E1,4.8288635E1,1.686145E1,0E0,0E0,0E0,0E0,0E0,0E0,0E0,0E0,0E0,0E0,0E0,0E0,0E0,0E0,0E0,0E0],"parents":[2147483647,0,0,1,1,2,2,3,3,4,4,5,5,6,6,7,7,8,8,9,9,10,10,11,11,12,12,13,13,14,14],"right_children":[2,4,6,8,10,12,14,16,18,20,22,24,26,28,30,-1,-1,-1,-1,-1,-1,-1,-1,-1,-1,-1,-1,-1,-1,-1,-1],"split_conditions":[-2.3072693E-4,-1.147779E-3,9.4826415E-4,-2.8915345E-3,7.96831E1,3.3535715E-4,1.8174805E-3,-5.8436306E-4,5.57E2,-2.9227394E-4,-4.3370036E-4,8.0908765E-5,1.17E2,6.3950964E-4,2.92E2,-3.9807286E-2,-5.5499233E-2,-4.370595E-2,-1.628887E-2,-1.351853E-2,-4.014174E-2,2.1489363E-3,-1.7289279E-2,8.172272E-3,-3.5316825E-3,3.6705703E-2,1.33411875E-2,3.822099E-2,1.2799499E-2,5.8130104E-2,4.6461742E-2],"split_indices":[27,27,27,27,7,27,27,25,11,13,28,2,11,28,11,0,0,0,0,0,0,0,0,0,0,0,0,0,0,0,0],"split_type":[0,0,0,0,0,0,0,0,0,0,0,0,0,0,0,0,0,0,0,0,0,0,0,0,0,0,0,0,0,0,0],"sum_hessian":[1.1783138E4,5.0290107E3,6.754127E3,2.4606843E3,2.5683264E3,4.0168662E3,2.7372607E3,7.505035E2,1.7101809E3,8.9670355E2,1.6716228E3,2.218724E3,1.7981422E3,1.2810078E3,1.4562529E3,5.2943077E1,6.975604E2,1.4109851E3,2.9919583E2,1.0287465E2,7.9382886E2,4.2135046E2,1.2502723E3,1.3064974E3,9.122267E2,6.083052E2,1.189837E3,1.0523358E3,2.2867198E2,4.9822488E2,9.5802795E2],"tree_param":{"num_deleted":"0","num_feature":"29","num_nodes":"31","size_leaf_vector":"1"}},{"base_weights":[-7.0435256E-3,-6.225366E-1,4.5774916E-1,-8.6658543E-1,-3.9131007E-1,2.0866399E-1,8.3815527E-1,-9.853312E-1,-7.153262E-1,-6.556766E-1,-2.27885E-1,5.3926013E-2,4.1338035E-1,6.734563E-1,9.88966E-1,-5.3139653E-2,-4.3694302E-2,-4.495653E-2,-1.7884208E-2,-4.4854753E-2,-2.2989154E-2,3.146683E-3,-1.6150821E-2,6.8357945E-3,-7.875084E-3,4.1002415E-2,1.566474E-2,3.7305966E-2,1.0466002E-2,5.510044E-2,4.4351004E-2],"categories":[],"categories_nodes":[],"categories_segments":[],"categories_sizes":[],"default_left":[0,0,0,0,0,0,0,0,0,0,0,0,0,0,0,0,0,0,0,0,0,0,0,0,0,0,0,0,0,0,0],"id":38,"left_children":[1,3,5,7,9,11,13,15,17,19,21,23,25,27,29,-1,-1,-1,-1,-1,-1,-1,-1,-1,-1,-1,-1,-1,-1,-1,-1],"loss_changes":[3.316365E3,2.8111963E2,6.2566077E2,4.2864746E1,1.1058069E2,1.2645633E2,6.424097E1,1.0779541E1,7.0047E1,4.586621E1,4.38816E1,3.9844635E1,6.969412E1,4.2075256E1,1.4718018E1,0E0,0E0,0E0,0E0,0E0,0E0,0E0,0E0,0E0,0E0,0E0,0E0,0E0,0E0,0E0,0E0],"parents":[2147483647,0,0,1,1,2,2,3,3,4,4,5,5,6,6,7,7,8,8,9,9,10,10,11,11,12,12,13,13,14,14],"right_children":[2,4,6,8,10,12,14,16,18,20,22,24,26,28,30,-1,-1,-1,-1,-1,-1,-1,-1,-1,-1,-1,-1,-1,-1,-1,-1],"split_conditions":[-2.1522921E-4,-1.1244005E-3,9.709475E-4,-1.8895387E-3,1.46E2,3.666757E-4,1.8534907E-3,5.35E2,3.3E2,-6.1150035E-4,-4.8199407E-4,6.46224E-1,7.8E1,7.684899E-4,4.06E2,-5.3139653E-2,-4.3694302E-2,-4.495653E-2,-1.7884208E-2,-4.4854753E-2,-2.2989154E-2,3.146683E-3,-1.6150821E-2,6.8357945E-3,-7.875084E-3,4.1002415E-2,1.566474E-2,3.7305966E-2,1.0466002E-2,5.510044E-2,4.4351004E-2],"split_indices":[27,27,27,27,11,27,27,11,11,27,28,10,11,28,11,0,0,0,0,0,0,0,0,0,0,0,0,0,0,0,0],"split_type":[0,0,0,0,0,0,0,0,0,0,0,0,0,0,0,0,0,0,0,0,0,0,0,0,0,0,0,0,0,0,0],"sum_hessian":[1.1590577E4,4.9866973E3,6.6038804E3,2.4247444E3,2.5619526E3,3.9917083E3,2.612172E3,1.3552747E3,1.0694697E3,9.775672E2,1.5843855E3,2.2740767E3,1.7176317E3,1.2512065E3,1.3609655E3,7.945046E2,5.607701E2,7.054176E2,3.6405212E2,4.3629706E2,5.4127014E2,3.906128E2,1.1937727E3,1.6344281E3,6.3964844E2,3.3781763E2,1.3798141E3,1.0813135E3,1.6989304E2,6.40707E2,7.2025854E2],"tree_param":{"num_deleted":"0","num_feature":"29","num_nodes":"31","size_leaf_vector":"1"}},{"base_weights":[-2.714089E-5,-4.8333547E-1,5.5702835E-1,-8.039634E-1,-2.3238282E-1,3.3102888E-1,8.714783E-1,-4.7045916E-1,-9.91201E-1,-1.4130825E-1,-6.698113E-1,1.9932655E-1,9.132316E-1,5.5645555E-1,1.0360298E0,-4.266384E-2,-1.8965926E-2,-4.0861513E-2,-5.560702E-2,-2.8155057E-3,-2.0458227E-2,-4.416765E-2,2.835308E-3,1.5976379E-2,2.915386E-3,4.827554E-2,-1.4991254E-2,1.8996889E-2,3.6420878E-2,4.468509E-2,5.6457292E-2],"categories":[],"categories_nodes":[],"categories_segments":[],"categories_sizes":[],"default_left":[0,0,0,0,0,0,0,0,0,0,0,0,0,0,0,0,0,0,0,0,0,0,0,0,0,0,0,0,0,0,0],"id":39,"left_children":[1,3,5,7,9,11,13,15,17,19,21,23,25,27,29,-1,-1,-1,-1,-1,-1,-1,-1,-1,-1,-1,-1,-1,-1,-1,-1],"loss_changes":[3.077509E3,4.9228674E2,3.770879E2,1.6731104E2,1.367399E2,2.3684964E2,1.14501465E2,3.3449203E1,3.527649E1,6.472936E1,9.183551E1,4.2735497E1,3.6437836E1,2.2910278E1,1.8301758E1,0E0,0E0,0E0,0E0,0E0,0E0,0E0,0E0,0E0,0E0,0E0,0E0,0E0,0E0,0E0,0E0],"parents":[2147483647,0,0,1,1,2,2,3,3,4,4,5,5,6,6,7,7,8,8,9,9,10,10,11,11,12,12,13,13,14,14],"right_children":[2,4,6,8,10,12,14,16,18,20,22,24,26,28,30,-1,-1,-1,-1,-1,-1,-1,-1,-1,-1,-1,-1,-1,-1,-1,-1],"split_conditions":[9.66931E-5,-9.6832844E-4,1.1570901E-3,5E0,8E0,8E0,5E0,-2.8164869E-3,7E0,6.3015234E-1,-1.539172E-4,5.149106E-6,1E0,1.8534907E-3,7E0,-4.266384E-2,-1.8965926E-2,-4.0861513E-2,-5.560702E-2,-2.8155057E-3,-2.0458227E-2,-4.416765E-2,2.835308E-3,1.5976379E-2,2.915386E-3,4.827554E-2,-1.4991254E-2,1.8996889E-2,3.6420878E-2,4.468509E-2,5.6457292E-2],"split_indices":[27,27,27,20,20,20,20,27,20,10,27,4,21,27,20,0,0,0,0,0,0,0,0,0,0,0,0,0,0,0,0],"split_type":[0,0,0,0,0,0,0,0,0,0,0,0,0,0,0,0,0,0,0,0,0,0,0,0,0,0,0,0,0,0,0],"sum_hessian":[1.1428799E4,6.119541E3,5.309258E3,2.685819E3,3.433722E3,3.0902825E3,2.2189756E3,9.669743E2,1.7188447E3,2.8430989E3,5.906229E2,2.521277E3,5.690055E2,7.628783E2,1.4560972E3,1.8433806E2,7.826362E2,7.080605E2,1.01078424E3,2.1591514E3,6.8394763E2,4.5629156E2,1.3433136E2,1.3604213E3,1.1608557E3,5.4569183E2,2.3313644E1,3.7803616E2,3.8484213E2,5.800648E2,8.760324E2],"tree_param":{"num_deleted":"0","num_feature":"29","num_nodes":"31","size_leaf_vector":"1"}},{"base_weights":[-4.9563134E-3,-2.0336401E-1,2.303568E-2,-9.519245E-2,-4.2314273E-1,1.8855236E-1,-1.5256747E-2,-1.736899E-1,1.6954626E-1,-1.6337682E-1,-6.119767E-1,3.0559564E-2,3.3664685E-1,7.920447E-4,-2.709547E-1,-1.432786E-3,-1.5733734E-2,1.5459761E-2,-5.438863E-3,-2.658335E-2,-5.7119975E-4,-3.79973E-2,-1.2786238E-2,-3.6002297E-2,5.7999506E-3,2.0418426E-2,4.235671E-3,4.215109E-3,-3.1705385E-3,-1.7955929E-2,-4.079612E-4],"categories":[],"categories_nodes":[],"categories_segments":[],"categories_sizes":[],"default_left":[0,0,0,0,0,0,0,0,0,0,0,0,0,0,0,0,0,0,0,0,0,0,0,0,0,0,0,0,0,0,0],"id":40,"left_children":[1,3,5,7,9,11,13,15,17,19,21,23,25,27,29,-1,-1,-1,-1,-1,-1,-1,-1,-1,-1,-1,-1,-1,-1,-1,-1],"loss_changes":[6.281383E1,3.3204163E1,6.282423E1,1.953096E1,2.2510712E1,4.356452E1,3.3036427E1,1.4801102E1,8.394825E0,1.0928818E1,1.3856796E1,5.794012E1,1.7333107E1,4.062479E1,1.1012711E1,0E0,0E0,0E0,0E0,0E0,0E0,0E0,0E0,0E0,0E0,0E0,0E0,0E0,0E0,0E0,0E0],"parents":[2147483647,0,0,1,1,2,2,3,3,4,4,5,5,6,6,7,7,8,8,9,9,10,10,11,11,12,12,13,13,14,14],"right_children":[2,4,6,8,10,12,14,16,18,20,22,24,26,28,30,-1,-1,-1,-1,-1,-1,-1,-1,-1,-1,-1,-1,-1,-1,-1,-1],"split_conditions":[-8.660254E-1,6.123234E-17,-5E-1,1.72743E2,5.1909615E-6,-7.0710677E-1,1E0,5.0411016E-1,4.3198398E-1,9.7E1,6.236686E-1,5.0472536E-6,6.08E2,-1.2855357E-1,3.03E2,-1.432786E-3,-1.5733734E-2,1.5459761E-2,-5.438863E-3,-2.658335E-2,-5.7119975E-4,-3.79973E-2,-1.2786238E-2,-3.6002297E-2,5.7999506E-3,2.0418426E-2,4.235671E-3,4.215109E-3,-3.1705385E-3,-1.7955929E-2,-4.079612E-4],"split_indices":[18,19,18,6,4,18,19,9,26,11,9,17,11,26,11,0,0,0,0,0,0,0,0,0,0,0,0,0,0,0,0],"split_type":[0,0,0,0,0,0,0,0,0,0,0,0,0,0,0,0,0,0,0,0,0,0,0,0,0,0,0,0,0,0,0],"sum_hessian":[1.1308165E4,1.3973638E3,9.910801E3,9.3741583E2,4.599479E2,1.8613416E3,8.0494595E3,7.232959E2,2.1411992E2,1.9439594E2,2.6555197E2,9.011582E2,9.601834E2,7.5750137E3,4.7444614E2,3.571209E2,3.66175E2,1.4250636E2,7.1613556E1,5.6049385E1,1.3834656E2,1.8682214E2,7.8729805E1,9.1334625E1,8.0982355E2,7.469243E2,2.1325905E2,3.2923118E3,4.2827017E3,3.549869E2,1.19459236E2],"tree_param":{"num_deleted":"0","num_feature":"29","num_nodes":"31","size_leaf_vector":"1"}},{"base_weights":[1.3694892E-3,-1.629119E-1,2.4492636E-2,-7.7655256E-2,-3.374911E-1,1.4462616E-1,-2.2709422E-2,-2.0020482E-1,1.7221703E-1,-2.7003173E-2,-4.856448E-1,2.3917573E-2,2.0301342E-1,-7.604379E-2,3.6201343E-2,-9.900637E-4,-2.6403889E-2,1.2033747E-2,-1.2235768E-2,-2.2636011E-2,8.778496E-3,-3.0950157E-2,1.9218208E-3,-3.0176563E-2,4.5867413E-3,1.6299162E-2,3.9744335E-3,-6.2465924E-3,6.622874E-3,1.4099796E-2,-2.0690127E-4],"categories":[],"categories_nodes":[],"categories_segments":[],"categories_sizes":[],"default_left":[0,0,0,0,0,0,0,0,0,0,0,0,0,0,0,0,0,0,0,0,0,0,0,0,0,0,0,0,0,0,0],"id":41,"left_children":[1,3,5,7,9,11,13,15,17,19,21,23,25,27,29,-1,-1,-1,-1,-1,-1,-1,-1,-1,-1,-1,-1,-1,-1,-1,-1],"loss_changes":[4.26419E1,2.058907E1,5.580304E1,2.857076E1,2.0878353E1,1.9559132E1,2.2201992E1,3.699981E1,8.826764E0,1.28226385E1,2.1507973E1,3.8611702E1,2.8390877E1,3.7818367E1,3.329509E1,0E0,0E0,0E0,0E0,0E0,0E0,0E0,0E0,0E0,0E0,0E0,0E0,0E0,0E0,0E0,0E0],"parents":[2147483647,0,0,1,1,2,2,3,3,4,4,5,5,6,6,7,7,8,8,9,9,10,10,11,11,12,12,13,13,14,14],"right_children":[2,4,6,8,10,12,14,16,18,20,22,24,26,28,30,-1,-1,-1,-1,-1,-1,-1,-1,-1,-1,-1,-1,-1,-1,-1,-1],"split_conditions":[-8.660254E-1,6.123234E-17,-2.5881904E-1,2.599356E2,5.1260195E-6,-7.0710677E-1,7.0710677E-1,5.831074E-1,1.3396768E-5,2.1E1,6.6226465E-1,5.040771E-6,-5E-1,6.901751E-6,-5E-1,-9.900637E-4,-2.6403889E-2,1.2033747E-2,-1.2235768E-2,-2.2636011E-2,8.778496E-3,-3.0950157E-2,1.9218208E-3,-3.0176563E-2,4.5867413E-3,1.6299162E-2,3.9744335E-3,-6.2465924E-3,6.622874E-3,1.4099796E-2,-2.0690127E-4],"split_indices":[18,19,18,7,5,18,18,10,5,12,10,17,18,5,19,0,0,0,0,0,0,0,0,0,0,0,0,0,0,0,0],"split_type":[0,0,0,0,0,0,0,0,0,0,0,0,0,0,0,0,0,0,0,0,0,0,0,0,0,0,0,0,0,0,0],"sum_hessian":[1.1223333E4,1.3840592E3,9.839273E3,9.308961E2,4.531631E2,2.7748823E3,7.064391E3,6.2470776E2,3.061884E2,1.467659E2,3.0639722E2,9.0510236E2,1.8697799E3,3.7075242E3,3.356867E3,4.0366306E2,2.210447E2,2.6336768E2,4.282071E1,4.692207E1,9.984383E1,2.4410168E2,6.2295513E1,8.7514465E1,8.175879E2,9.3617334E2,9.3360657E2,3.0036484E3,7.0387573E2,4.7240894E2,2.884458E3],"tree_param":{"num_deleted":"0","num_feature":"29","num_nodes":"31","size_leaf_vector":"1"}},{"base_weights":[6.2967576E-3,-5.9902704E-1,4.2624456E-1,-8.854323E-1,-4.2150798E-1,1.3284285E-1,7.302876E-1,-1.0633632E0,-7.9771876E-1,-6.1439645E-1,-1.083983E-1,3.0245943E-2,2.583661E-1,5.7703E-1,9.5988053E-1,-5.395248E-2,-3.703463E-2,-4.4592626E-2,-1.8472103E-2,-3.8172103E-2,-2.063413E-2,1.1149996E-3,-1.725487E-2,7.1195173E-3,-3.6284507E-3,2.6899392E-2,6.348591E-3,3.8713556E-2,2.0673066E-2,5.290882E-2,4.0852174E-2],"categories":[],"categories_nodes":[],"categories_segments":[],"categories_sizes":[],"default_left":[0,0,0,0,0,0,0,0,0,0,0,0,0,0,0,0,0,0,0,0,0,0,0,0,0,0,0,0,0,0,0],"id":42,"left_children":[1,3,5,7,9,11,13,15,17,19,21,23,25,27,29,-1,-1,-1,-1,-1,-1,-1,-1,-1,-1,-1,-1,-1,-1,-1,-1],"loss_changes":[2.8614766E3,2.3404419E2,5.927644E2,2.6672241E1,1.7195847E2,4.3564255E1,1.1428027E2,2.1325073E0,4.7448425E1,5.266815E1,3.363547E1,2.1489042E1,5.5833992E1,6.2902588E1,1.7456787E1,0E0,0E0,0E0,0E0,0E0,0E0,0E0,0E0,0E0,0E0,0E0,0E0,0E0,0E0,0E0,0E0],"parents":[2147483647,0,0,1,1,2,2,3,3,4,4,5,5,6,6,7,7,8,8,9,9,10,10,11,11,12,12,13,13,14,14],"right_children":[2,4,6,8,10,12,14,16,18,20,22,24,26,28,30,-1,-1,-1,-1,-1,-1,-1,-1,-1,-1,-1,-1,-1,-1,-1,-1],"split_conditions":[-2.7542087E-4,-1.4494003E-3,6.3579157E-4,-3.1612117E-3,2.53E2,2.0200592E-4,1.8174805E-3,8.2E-1,6.19E2,-6.282442E-4,5.0611898E-6,4.782942E-1,4.7158765E-6,1.96E2,5.21E2,-5.395248E-2,-3.703463E-2,-4.4592626E-2,-1.8472103E-2,-3.8172103E-2,-2.063413E-2,1.1149996E-3,-1.725487E-2,7.1195173E-3,-3.6284507E-3,2.6899392E-2,6.348591E-3,3.8713556E-2,2.0673066E-2,5.290882E-2,4.0852174E-2],"split_indices":[27,27,27,27,11,27,27,22,11,27,2,9,5,11,11,0,0,0,0,0,0,0,0,0,0,0,0,0,0,0,0],"split_type":[0,0,0,0,0,0,0,0,0,0,0,0,0,0,0,0,0,0,0,0,0,0,0,0,0,0,0,0,0,0,0],"sum_hessian":[1.1254593E4,4.609669E3,6.6449243E3,1.7623479E3,2.847321E3,3.3823713E3,3.262553E3,5.782396E2,1.1841083E3,1.7613157E3,1.0860052E3,1.8618346E3,1.5205367E3,1.9586381E3,1.3039149E3,5.491968E2,2.9042898E1,9.698551E2,2.1425319E2,1.01129144E3,7.5002423E2,7.002523E2,3.85753E2,8.903305E2,9.715041E2,4.8509848E2,1.0354382E3,8.8623206E2,1.072406E3,7.685886E2,5.3532623E2],"tree_param":{"num_deleted":"0","num_feature":"29","num_nodes":"31","size_leaf_vector":"1"}},{"base_weights":[-3.0889905E-3,-1.9134451E-1,2.3238651E-2,-4.1318867E-1,-1.3213003E-1,1.5689327E-1,-2.9221106E-2,-3.188231E-1,-6.4449346E-1,-2.184779E-1,5.215703E-2,1.8147123E-1,-6.925529E-2,-7.880634E-2,3.759062E-2,-2.1279654E-2,6.216194E-3,-9.836123E-3,-4.206117E-2,2.5448778E-3,-1.6327783E-2,9.269631E-3,-6.8604844E-3,1.0436485E-3,1.1107374E-2,-1.5342036E-2,4.4210176E-3,2.00773E-3,-5.39576E-3,5.053505E-4,2.1009816E-2],"categories":[],"categories_nodes":[],"categories_segments":[],"categories_sizes":[],"default_left":[0,0,0,0,0,0,0,0,0,0,0,0,0,0,0,0,0,0,0,0,0,0,0,0,0,0,0,0,0,0,0],"id":43,"left_children":[1,3,5,7,9,11,13,15,17,19,21,23,25,27,29,-1,-1,-1,-1,-1,-1,-1,-1,-1,-1,-1,-1,-1,-1,-1,-1],"loss_changes":[5.5243805E1,1.7909924E1,6.856776E1,6.073078E0,1.721139E1,1.5333717E1,2.3270039E1,9.812946E0,7.09042E0,2.1450504E1,8.746891E0,1.62387E1,1.0176603E1,1.3965191E1,3.1463882E1,0E0,0E0,0E0,0E0,0E0,0E0,0E0,0E0,0E0,0E0,0E0,0E0,0E0,0E0,0E0,0E0],"parents":[2147483647,0,0,1,1,2,2,3,3,4,4,5,5,6,6,7,7,8,8,9,9,10,10,11,11,12,12,13,13,14,14],"right_children":[2,4,6,8,10,12,14,16,18,20,22,24,26,28,30,-1,-1,-1,-1,-1,-1,-1,-1,-1,-1,-1,-1,-1,-1,-1,-1],"split_conditions":[-8.660254E-1,-4.932519E-4,-2.5881904E-1,9.4481343E-1,2.498316E2,9.559505E-1,6.929746E-5,6.6274474E-6,-9.659258E-1,4.3334758E-1,3.995392E2,5.114369E-6,-3.2856077E-4,-4.438073E-1,7.11E2,-2.1279654E-2,6.216194E-3,-9.836123E-3,-4.206117E-2,2.5448778E-3,-1.6327783E-2,9.269631E-3,-6.8604844E-3,1.0436485E-3,1.1107374E-2,-1.5342036E-2,4.4210176E-3,2.00773E-3,-5.39576E-3,5.053505E-4,2.1009816E-2],"split_indices":[18,2,18,26,7,8,28,4,18,10,7,17,28,26,11,0,0,0,0,0,0,0,0,0,0,0,0,0,0,0,0],"split_type":[0,0,0,0,0,0,0,0,0,0,0,0,0,0,0,0,0,0,0,0,0,0,0,0,0,0,0,0,0,0,0],"sum_hessian":[1.1144227E4,1.3665387E3,9.777688E3,2.8664807E2,1.0798906E3,2.75546E3,7.022228E3,2.0527872E2,8.136935E1,7.35218E2,3.4467264E2,2.4855288E3,2.699312E2,4.0306482E3,2.9915798E3,1.6545442E2,3.9824284E1,2.5447964E1,5.5921383E1,2.1066954E2,5.2454846E2,2.0233427E2,1.4233836E2,5.026147E2,1.9829141E3,1.07302284E2,1.6262895E2,7.923054E2,3.2383428E3,2.7920461E3,1.9953386E2],"tree_param":{"num_deleted":"0","num_feature":"29","num_nodes":"31","size_leaf_vector":"1"}},{"base_weights":[8.142824E-3,-4.0928796E-1,5.7784194E-1,-7.034305E-1,-1.2322554E-1,3.9107037E-1,9.4521916E-1,-4.4094923E-1,-9.824975E-1,-3.6456895E-1,-3.3728108E-2,1.9968966E-1,6.8196726E-1,7.705835E-1,1.1075754E0,-3.6742534E-2,-1.5977563E-2,-3.772394E-2,-5.3056717E-2,-1.152446E-2,-4.906155E-2,5.7116547E-3,-8.849834E-3,1.5700748E-2,-1.4351105E-4,2.63593E-2,4.2806845E-2,2.3483131E-2,4.7537986E-2,5.611769E-2,4.6857756E-2],"categories":[],"categories_nodes":[],"categories_segments":[],"categories_sizes":[],"default_left":[0,0,0,0,0,0,0,0,0,0,0,0,0,0,0,0,0,0,0,0,0,0,0,0,0,0,0,0,0,0,0],"id":44,"left_children":[1,3,5,7,9,11,13,15,17,19,21,23,25,27,29,-1,-1,-1,-1,-1,-1,-1,-1,-1,-1,-1,-1,-1,-1,-1,-1],"loss_changes":[2.6324263E3,5.374607E2,3.2081787E2,2.3027063E2,6.996918E1,1.7272507E2,4.385901E1,5.7737152E1,2.6556885E1,7.223219E1,5.014525E1,4.3404495E1,3.2753845E1,4.0924805E1,1.0006714E0,0E0,0E0,0E0,0E0,0E0,0E0,0E0,0E0,0E0,0E0,0E0,0E0,0E0,0E0,0E0,0E0],"parents":[2147483647,0,0,1,1,2,2,3,3,4,4,5,5,6,6,7,7,8,8,9,9,10,10,11,11,12,12,13,13,14,14],"right_children":[2,4,6,8,10,12,14,16,18,20,22,24,26,28,30,-1,-1,-1,-1,-1,-1,-1,-1,-1,-1,-1,-1,-1,-1,-1,-1],"split_conditions":[2.0200592E-4,-7.172489E-4,7E0,6E0,-4.2857067E-4,1.182732E-3,1.1570901E-3,4E1,7E0,8E0,-1.4790129E-7,5.5527826E-6,2.1107271E-3,8E0,5.0519884E-4,-3.6742534E-2,-1.5977563E-2,-3.772394E-2,-5.3056717E-2,-1.152446E-2,-4.906155E-2,5.7116547E-3,-8.849834E-3,1.5700748E-2,-1.4351105E-4,2.63593E-2,4.2806845E-2,2.3483131E-2,4.7537986E-2,5.611769E-2,4.6857756E-2],"split_indices":[27,27,20,20,27,27,27,12,20,20,28,4,27,20,17,0,0,0,0,0,0,0,0,0,0,0,0,0,0,0,0],"split_type":[0,0,0,0,0,0,0,0,0,0,0,0,0,0,0,0,0,0,0,0,0,0,0,0,0,0,0,0,0,0,0],"sum_hessian":[1.1067458E4,6.3874893E3,4.679969E3,3.1485483E3,3.2389407E3,3.1039905E3,1.5759789E3,1.6238185E3,1.52473E3,8.753508E2,2.36359E3,1.8732609E3,1.2307295E3,7.620451E2,8.139337E2,4.7318826E2,1.1506302E3,3.937087E2,1.1310212E3,7.201448E2,1.5520607E2,1.1628523E3,1.2007377E3,1.1970773E3,6.7618365E2,6.537664E2,5.769631E2,2.8674506E2,4.7530008E2,7.438442E2,7.0089554E1],"tree_param":{"num_deleted":"0","num_feature":"29","num_nodes":"31","size_leaf_vector":"1"}},{"base_weights":[1.1831966E-3,-5.6008935E-1,3.8587457E-1,-8.6432415E-1,-4.169671E-1,1.5161224E-1,7.4703413E-1,-1.0290781E0,-7.601287E-1,-6.2629694E-1,-1.7702591E-1,5.5969853E-2,3.7231275E-1,5.547019E-1,9.145973E-1,-5.498446E-2,-4.4249322E-2,-4.47051E-2,-1.57516E-2,-3.89389E-2,-2.2156285E-2,1.7988788E-3,-1.3989768E-2,5.3566447E-3,-8.494961E-3,3.4351975E-2,1.3140527E-2,3.4228932E-2,1.4030151E-2,5.35005E-2,4.1855194E-2],"categories":[],"categories_nodes":[],